{"layer_sizes": [784, 128, 64, 10], "activation_functions": ["relu", "relu", "softmax"], "loss_function": "categorical_crossentropy", "weights": [[[0.15707480695568793, -0.04372301107924299, 0.2048170994782936, 0.48162432906885533, -0.07404579859406406, -0.07404060683801993, 0.4993909407130632, 0.24268416996376144, -0.14846083626633672, 0.17157255051318782, -0.1465455417307622, -0.1472766795390948, 0.07651518859768644, -0.6050323375322846, -0.5454669127382026, -0.17781092923100023, -0.320285322535686, 0.09937373196335372, -0.28714242489157704, -0.4466096444105707, 0.4634788359613918, -0.07139673512240349, 0.021354293311589917, -0.45054493606282325, -0.1721489328347582, 0.03507680274475325, -0.3639761276879832, 0.11880614503840484, -0.18993863109630393, -0.0922416628582024, -0.19027633778286196, 0.5857417923289857, -0.0042681972263040446, -0.33447756415531876, 0.2601115400029078, -0.38606466008617885, 0.0660484680505994, -0.6197021054044415, -0.42000930709788137, 0.062252988834206734, 0.23352363687004318, 0.05419140872684968, -0.036571197983317726, -0.09521734899561482, -0.46754970602066037, -0.22763472590081785, -0.14566676948135548, 0.33429140000395413, 0.10866164407276148, -0.5575222497283362, 0.1024843496435853, -0.12177370926872132, -0.2140615319244026, 0.19342902634561776, 0.32603067576332123, 0.2944966316040102, -0.2653838825708788, -0.09778153884018843, 0.10475469487582106, 0.30849445619851584, -0.151528198766637, -0.058710523431371134, -0.34985383729622277, -0.378273748427574, 0.2569432256467113, 0.4288807544175638, -0.022771599877949866, 0.3173449664247983, 0.1143593523120226, -0.20400477881210916, 0.11428332497822818, 0.48636986746574135, -0.01132918831297184, 0.49478376789048145, -0.8284361417998485, 0.2599083928422214, 0.027526699927272136, -0.09455442646043499, 0.029017305371792174, -0.6285244776687516, -0.0694663503475578, 0.11292891070568785, 0.46735113217819835, -0.16389143331773448, -0.2556681258818172, -0.15866950897595117, 0.28947556668800944, 0.10396022898323853, -0.16752488576187555, 0.16230941374263338, 0.030698616560720156, 0.3063124414196167, -0.22200868150204456, -0.1036158686268939, -0.12399548530197041, -0.4628040625800683, 0.09364145368841797, 0.08255292552836399, 0.001617016970669368, -0.07418296512351671, -0.4475795278441967, -0.13301973070352124, -0.108375845942801, -0.2537023485720418, -0.051003020290577926, 0.12777209980765072, 0.5964643538322622, 0.055206351747918096, 0.08144458469502353, -0.023541865631812754, -0.606768734911429, -0.008384423601754539, 0.019046464736375935, 0.7789455503898187, -0.06082987816157802, 0.09535764241447293, -0.010976825388380046, -0.3695684450293667, 0.3613923055871601, 0.23778210312080456, 0.25014626546137236, -0.2875735632734785, 0.44360251112845217, -0.443304229875133, 0.1855805077435934, 0.6926828891089042, -0.3132350892546058, -0.1790790659326919], [0.0315125285621931, -0.15921298134503187, -0.4903628326500481, 0.021681516354378764, -0.33592993022299666, 0.14976307634224775, -0.2907474716134975, 0.4901322943713334, -0.24768643886082153, -0.10184479378971643, 0.25725673226504503, -0.38923347305575196, 0.0719291469781999, 0.41335483305182874, -0.5083308321748177, 0.058386352614739456, 0.08218215545139251, 0.2472341001630076, -0.39115815997391545, -0.41756504487780083, 0.1650524152863624, 0.09391479975777103, 0.07921279446806664, 0.10955654332976208, -0.21504269854098837, 0.07344506780237536, 0.09267765351227136, -0.22589775307343862, 0.5900097055504643, 0.14983912604516764, -0.3767232435684399, 0.2076204809285693, -0.3082214071535462, 0.24889800590772374, 0.36638009166649627, -0.2595225361418808, 0.3046462811848804, 0.13053279037948848, 0.25995824792650196, 0.5998186075010726, -0.07759853573066842, -0.23835230342086913, -0.28128916092022105, -0.2579818639081805, -0.024381701324101574, 0.10788172686849985, 0.08749731334954512, 0.2615783109292115, 0.0041115592225430065, 0.45964783404880444, -0.08369183913592967, 0.860193018738519, 0.19785338765340796, -0.27105701918997277, -0.3386459423060565, 0.1525711740371007, -0.07066513739149406, 0.22578678118166073, 0.14965087681400713, -0.02303052435091829, -0.2677796857418638, -0.47903675371921794, -0.14120042578526956, 0.2708170775484251, 0.0677023864244749, -0.393937191032636, 0.05476461729864694, 0.1218480541991117, -0.27950026252725413, 0.04861214683385602, 0.018407212996881653, -0.3614389439065779, 0.11314229767199901, 0.1773356379902373, 0.34249087511107695, 0.333241468738957, -0.4356573065389, -0.29656631728701116, 0.16286845196927968, 0.16247338346780454, 0.16287237923270267, 1.2183406723524643, 0.18053143083671191, 0.3590973855597912, 0.30168184644557916, 0.20598800020334518, -0.09969688892643246, 0.24000714107212687, -0.24438879111469983, -0.0748886189606131, -0.15348543043600407, 0.025890876192687984, 0.7319593076308998, -0.5904811004142891, 0.2170145269084223, -0.5099855371662021, -0.14923795963075073, 0.34435641458169225, 0.020327126838077875, -0.3408128234608976, -0.22619889400283752, 0.21490767793568444, -0.23096220832115275, 0.0684502162186635, 0.014411081126060024, -0.2060541222591826, 0.6779746498323518, 0.20046279626320274, -0.6404063160442958, 0.05896203142373641, -0.20927525533388816, 0.26956308914089316, -0.2506170626365877, -0.036282848565799164, 0.15969099909891166, 0.2737758309698913, -0.37956705136128527, -0.10577857853985455, -0.15019089472860114, -0.20660084369028006, 0.5582856504090451, 0.12806646173485975, -0.398726516085848, 0.29025343302899703, 0.6710847133200937, 0.32649418283408166, -0.4804669700867168, -0.1531282590917294], [0.4006324824491106, -0.22378473419095654, 0.14034802627755236, 0.24496079619652705, -0.29312115228007124, -0.018823570368779883, -1.0249787300133815, -0.3239398153544003, -0.0798690622820616, -0.39458368810612593, 0.5162137798629345, -0.45225041304073316, -0.13915428497621335, 0.04134380068293241, 0.45577063242111804, -0.45405948037560534, 0.36782467485572584, 0.0032359780257379986, -0.31038028804709367, 0.14612994933489348, 0.06294820283519027, -0.1898052421895285, 0.022073357399711137, -0.12184685795150693, 0.035897336492964275, 0.20938410401501262, 0.5015425546347827, -0.39143162993503233, 0.6745243789069081, -0.6173043639117258, -0.047998661517755954, 0.1860422359158844, 0.08885743060274819, -0.1969148780526241, -0.06581403428887819, -0.1559005842113758, -0.18637350045752468, 0.26866777314417944, 0.11289820956014268, -0.21911725336090804, 0.2844784589172826, 0.09717664098485482, 0.25704957192015776, 0.19910612210127268, -0.2621512403429911, -0.1771447989064762, 0.23631498730679812, 0.19301602548112898, -0.0066096643654735875, 0.03710217631633737, 0.4040331157133097, -0.18707129873103268, 0.17300738264106355, -0.06393893078418929, -0.06883684060040117, 0.3474637492549229, 0.26101956807425936, 0.2572543348256529, 0.41282864676873987, 0.006641997917298848, 0.21565246464115126, -0.09811496330683862, 0.10251040146524688, -0.04115484734530078, 0.030672817322294692, 0.1882051765831416, -0.25874409876769183, 0.6616709538320708, -0.31813062912575973, -0.38396015254494803, 0.36622681432673526, 0.25034572515077086, 0.19736401547324062, 0.19870029668135558, -0.0038727696182954815, -0.2837367454438065, 0.023971506091495468, -0.21413733526361356, 0.30835993489763003, -0.04650362722870717, -0.261045134394858, -0.10163112673536734, 0.13058039130366475, -0.1782653559820419, -0.2600089188634534, 0.07706066249696014, 0.07746523153051628, -0.16030950784509446, -0.14895539109403877, 0.07338063329495251, -0.4579244763156627, -0.4450791251207249, -0.22719201109436468, -0.06749791594849454, 0.09831760490679049, 0.46654860056501013, 0.2712157866480176, -0.050577004030351654, -0.006013452943179028, -0.31702762134569423, -0.005854367636839384, -0.09128187652717641, 0.10205256938788416, -0.26159339325955205, 0.16423178798711782, 0.4846946023458817, -0.03439297877817172, 0.12703240046212508, 0.21824269272874824, -0.12687705350467954, 0.07086426490407699, 0.003982066768015672, 0.03088789443733756, -0.24444715705777292, 0.007750797650588861, 0.1574808871207512, 0.4588919012626405, 0.3033480703380516, 0.6808960783655246, -0.24265660557055296, 0.2758520062005657, 0.05797783289168525, 0.6924764895885435, -0.25560636105310014, -0.26554336222837055, -0.18954459723568573, -0.6716348001512041, -0.16625833597824127], [-0.24005882567354223, 0.047558691120184474, 0.10807272874291571, 0.5932973131511757, 0.30055040711872333, -0.18243295423706885, -0.2841036644772429, 0.15555850066635607, -0.4174943976773832, 0.5791581140780774, 0.3729717145263222, -0.14836636833456396, -0.5417407050207158, 0.428132036354241, -0.036220679384149676, 0.39143188707456916, -0.5042022966159998, -0.18953902451496255, 0.0016582034475441851, 0.014856568212368967, -0.1423231986071961, 0.19696244266998816, -0.33761122333759513, -0.045024346474911485, 0.03804081887783806, 0.162679843246705, 0.2250323831623941, -0.3556430562703929, -0.4851294970264997, 0.4040368870804589, 0.10508691762439899, -0.23669222534895926, 0.4905173239720923, 0.036579531187245405, 0.37292651398645155, 0.021351218541168157, 0.6516657126092653, 0.5550875132039288, -0.07872937649182175, 0.3072377113471506, 0.20408579477830663, 0.4327992999386, -0.30513559031648285, 0.2169485205678965, 0.3347032109739632, -0.5561622587971823, -0.3741791960807044, -0.644861835962728, -0.08519392140607061, 0.22690678457303964, 0.47508701434396916, 0.023430826885653653, 0.5150134556763033, -0.4364264010078755, -0.5386568234695925, -0.01756572472945373, 0.12145215892233108, -0.010338987150278334, -0.6537825966647701, -0.028182231002461405, -0.4125094759817502, 0.2117690540793249, 0.11592854438889731, -0.29721608515468256, -0.16249898729934173, -0.3349527257617702, -0.01982087090664722, 0.3020425222402452, -0.3117139455372991, 0.1593935035707794, -0.16768218207132596, -0.25072840448176414, -0.033845971624407854, -0.32737236690476174, -0.17507928298671355, -0.3788022499343293, 0.6213006396192847, 0.011151314261838399, -0.22127263421749244, 0.06766638914396543, -0.03552124821475948, -0.06987672281802641, 0.19421656351666577, 0.23954497088878993, -0.16775919277824589, -0.18208971587081316, -0.08697898372940426, -0.7279313874712116, -0.47914548468772794, 0.43224359601988394, 0.5201844652103369, -0.0787521104465944, 0.18232332040857757, 0.09842594104369798, 0.9736275998899158, 0.35404067313145543, -0.0404510941882173, -0.30216841886981766, -0.5080029310810219, 0.06434085103595534, -0.23917910650642568, -0.4497561132952331, -0.20446429875107774, -0.3420155090229511, 0.5335210302129924, 0.2787989707717527, -0.002521170552807453, 0.4679994288709058, 0.024466007087909775, -0.2723619788916333, 0.4816541243214414, 0.17041831919843614, -0.32800603419221164, -0.06019037495697749, -0.2768948041514273, -0.43727966977153654, 0.29288305679088467, 0.6038105586112452, -0.4422658994924161, 0.1780265040548637, -0.2057512461088514, -0.15404257187800469, -0.18733140726400554, -0.2732178709550166, 0.015343886008492815, -0.2627694989840939, 0.08552595782036357, -0.015886685120009975], [-0.07556200705465145, -0.286996829365475, -0.182391109368183, 0.23887567981159957, 0.1584039232018952, -0.30913011122068895, 0.03141163303918632, 0.23760947143767905, -0.5279123026257228, 0.17182557977878615, -0.20954003100112484, 0.18043914226139685, -0.2413637379653361, -0.5707538346169184, -0.5146741092293907, 0.015205795261767638, 0.08213146650368856, -0.28597002612865347, 0.20194066663436863, -0.5254187774834707, -0.02089626710508339, -0.38295694746108244, -0.20612867617938754, 0.014988775942555979, -0.27208659635477384, -0.12160714066118698, 0.31821772701669065, -0.18242922713258247, 0.26426904967625275, -0.35724467490228723, 0.1675387916085372, 0.45586402447062235, -0.7816026186630568, -0.25200040638684623, 0.18248622960888675, -0.06420858882840202, 0.11736663040257721, -0.1909968863024067, 0.02738209505242792, -0.04922946436771471, 0.36928511255321816, 0.0804549349052626, 0.10675933562937864, -0.13024693287070072, -0.15419462693435035, -0.13678690940649052, 0.1247367197848445, -0.13312698189755012, 0.09163485564420155, 0.6562993581452085, 0.27547381888828454, -0.10309769324635511, 0.3798571951142281, -0.12904476357709302, -0.644511568623399, -0.3187848820535662, -0.5915963498683551, -0.11115832378317846, 0.005824402904762952, 0.5301360261280847, 0.10338351305519294, -0.06928567075833499, 0.2622810740595519, -0.6992223791285141, 0.07450786535171626, 0.24376897816301216, -0.4675700253661826, 0.36168678595605314, 0.10704196274668382, -0.13132556926664332, 0.2001031958947563, 0.7180561297338736, 0.05751115955099638, 0.07849424148514501, -0.1452626710570965, -0.2687443864178394, 0.26257524030955376, -0.2707174757903087, 0.02263123131811956, -0.15104854731183953, 0.15146672026291583, 0.10551322215936663, 0.32809893872591, -0.16128134644178924, -0.08534194789176149, -0.3095122633001784, -0.14049786509020673, 0.11931289203262511, 0.23938081914193618, -0.2916142803628836, 0.2749935374300298, 0.42869033161773923, 0.1307395958398185, 0.5934949470749933, -0.24469362980048112, -0.39359437629051963, -0.562480730679914, 0.4730907504844228, 0.20692858966698555, -0.017577416306794325, 0.08853385325591967, -0.35591088710358487, 0.7734146847454879, 0.04086332569808148, 0.034593671511776114, 0.22950755812506599, 0.15210847478557632, 0.07079834484464922, -0.24996997113884747, 0.14909138532474464, 0.5951484021092642, 0.42545917554985957, 0.5038098477900786, -0.16166059131062036, -0.31294052154986546, -0.039777316737250226, 0.017621764524538133, 0.34601373948063974, -0.5352043089172321, 0.48368628053337065, -0.049966484780648926, -0.13499164710435016, -0.32005550556439016, -0.5233116284221717, 0.2603093948170522, 0.023185176972884785, -0.40792145357418375, -0.409539866905507], [-0.10618444531915296, 0.5277909483762802, -0.08208999311900478, -0.47533553806849127, -0.07771078017003082, -0.08624276520144313, -0.8528304382980629, -0.017169544345110168, -0.07302791058403821, 0.22015978343165096, 0.584691255367783, 0.35625114256658036, -0.0850300699213469, -0.3499142161611299, 0.813767821739233, 0.01872651309541715, 0.004404828863827385, -0.007629022401757949, 0.06263990137959856, -0.04565077056397882, -0.18140785488447303, -0.17293198131478246, -0.010357493470151006, -0.17184600137384193, -0.22542162937052404, 0.033656193139671935, -0.08063087585018663, 0.47560434288449127, -0.8383102602862071, 0.3451647733755116, 0.3940467366901867, -0.6556635612755616, -0.10836733231771367, -0.1174599152612088, -0.4450942788631902, -0.24596723348747926, -0.35119491860392005, 0.5541165677811862, 0.2958874879752462, 0.402101027057331, 0.22821274460915264, -0.3570375193293784, -0.16586787203620978, 0.1547538242425748, -0.38647074679295296, 0.2254699007469267, -0.07599756377665413, -0.11852874662803636, 0.22482528247239225, 0.14048839451447298, -0.11414752422463113, 0.3666122737946162, -0.3418622410096446, 0.1947759409942097, 0.18755508582911828, -0.09788717898272985, 0.10313231704794469, -0.3956368512936609, 0.2922030000229961, -0.05847118953910698, -0.1652995330243096, 0.33172584401745214, -0.2227330317683918, -0.44539456927022797, -0.49224936606010083, 0.19163717309800427, -0.40490731368228594, 0.5549146439882602, -0.6583638856598276, 0.5364666074893969, 0.06672958224401539, -0.030583371311310715, -0.17231854548152956, 0.12621792177819655, -0.011901137872518272, 0.3488946893922575, 0.03612195415375304, 0.04752959025548522, -0.11498427756482804, -0.018007787373748616, 0.09733546575276691, -0.5408027303224112, -0.4263336642089573, 0.23504074401333214, 0.0540323957886873, -0.05818063943913221, 0.0058293214721732, 0.10991498619484402, -0.170686997890192, -0.24612156459432183, 0.06193170750453758, -0.3093886377968902, 0.1291008569098053, -0.5384042096250284, 0.32544758807512336, 0.14944844608865845, 0.08096371091596145, 0.3107541745379782, 0.5266692629305348, 0.32077197957503806, -0.5821355456919699, -0.40463776563743264, -0.1975849829905226, 0.008250714521205117, 0.16369815560141537, -0.22950034473406186, 0.059060836696779404, -0.2388730571853394, -0.19337890871966862, -0.44482529619910827, -0.2919519869301248, -0.4274402031934038, -0.30859821870460646, 0.33319079152326464, -0.3002262896741936, 0.8324322996663192, 0.15600081773167948, 0.0584503144752419, -0.2714365632698772, 0.22145742868502652, -0.18203266382595998, 0.03858289111743112, 0.809569814350989, -0.030376807493727495, 0.36343213651405976, -0.2223639100332657, -0.011064332186155561, 0.5599763290682139], [-0.1982643920503754, 0.5731465585158081, 0.22381081344317827, -0.1778676119997377, 0.19998488653328678, 0.30754872093519614, 0.19663357523895844, -0.4965486553153742, -0.2299409646988909, -0.07827226516798823, -0.023537917001280332, 0.1962737508374358, 0.05619399054407889, -0.4222729634180824, 0.12022911706801835, 0.19308416619282945, 0.17702128278679777, 0.3417728743961953, 0.2637093399649482, 0.1452054906538432, -0.022188346185549997, -0.5252419654470036, 0.13585720967642997, 0.06567661334079455, 0.08588076898374349, -0.4037433498968359, -0.3418600947111963, 0.33303617408372266, -0.012508437938542335, 0.21550944306906217, 0.008955056820960284, 0.0094097175180249, 0.296711391853566, -0.16318767156894645, 0.030396058559849958, -0.14618428183198437, -0.1373997713436651, -0.09776880991916982, 0.07024486636062345, -0.15139360711228178, 0.3971049542520743, -0.2828996686432239, -0.05909400256504005, -0.13905517020626232, 0.4575745838449514, 0.062156077876194094, 0.32629789359283934, -0.46977543804862204, 0.08444870899003835, 0.28132595907978164, 0.02602048210752084, 0.33693447874169863, -0.16358097096155325, 0.44567479255143505, 0.726975417932416, -0.11473962739259881, -0.1408802670974346, 0.45960052636248067, 0.49950457090684636, -0.16534285832618126, -0.13287473847994863, -0.08910811735788668, -0.42515258162456554, -0.29050325278371775, -0.31753719143644116, -0.24279890876604623, -0.010968324452867413, 0.07406520163825517, 0.49031130705060183, -0.31570726799671106, 0.31127007311058585, -0.06766921416195783, -0.015641798402294377, 0.21339666047246217, -0.35503587673655385, 0.12092857973884834, 0.05263680995178429, 0.15572676308946506, 0.09144315426508784, 0.7764340781448518, -0.20167109051940704, -0.1679159808419682, -0.1970543365858596, -0.17565728846551623, -0.20155950735602998, 0.3760000413892312, 0.44920288495926014, -0.18048582543478683, -0.26321394341441506, 0.14907468826165726, -0.1746282596359889, 0.2001506147698016, 0.06416989355719473, -0.4793203753387438, 0.4893641127160424, 0.567906384602514, -0.19378079863226103, -0.12260199817979947, 0.0903985738904672, 0.10576452352675965, 0.20824998417051255, 0.6356824905309908, -0.05595562645331645, -0.2524437542577926, -0.43617903809910347, -0.2311403736454312, -0.010475668626781245, 0.5674890241681796, -0.16368306475928196, 0.07076796400825304, -0.00519337573661309, 0.3758029500119248, 0.7990861959095243, -0.16787544610869304, -0.15477434150806396, 0.3301926615177348, 0.2156330224304223, 0.583980132104435, 0.1846543055598957, -0.11361813521711076, 0.1867814575968826, 0.3506028564626022, 0.25945924721666486, 0.16041413361541673, 0.3373121541554822, 0.36976373237997456, 0.43707705001588393, 0.20514007854550675], [-0.05284737719962135, 0.04639494130490454, 0.38153163515822164, -0.25833774221576017, 0.11658473685491322, -0.12438465390999755, 0.0090899111412269, 0.4042819764723715, 0.06043083136783379, 0.014684525884952252, -0.4300242695663581, 0.23598609806688686, 0.20412002060145024, 0.6840812084762585, -0.09732802366779292, 0.06930141853902545, 0.07886204518090183, 0.49883452665553757, -0.03013509331811109, 0.08823435376496395, 0.1922337552370942, 0.059010986134096104, -0.14117470460413567, 0.06137664486045575, 0.33951216978290427, -0.3246126399148651, 0.04204870300345349, -0.22139764125010278, 0.37790692575085605, -0.48167399212587514, -0.17674660714069867, 0.11928486856667601, 0.49506216641045436, -0.020792058174134796, -0.1755695060197959, 0.5948740975959795, -0.45790220088995687, -0.6953234955664848, 0.1391447865554928, -0.15876348578634258, -0.3229421723443274, 0.2240019768730985, 0.07709655506917674, -0.17837732525571248, -0.404867799813228, 0.2758952318670492, 0.20561166596738384, -0.031362161845744495, 0.5839578919041978, -0.3383905151039693, -0.48241341680398503, -0.21880054322756812, -0.014415564113706108, 0.07695069044308239, -0.07628553965861587, 0.11132969155388815, -0.39577151619374384, 0.45655845540027135, -0.02597848361873276, 0.3533199648030388, 0.10837927064236835, 0.1444380501140003, 0.1801762341773195, 0.14157787776089092, 0.20324678252109, 0.42031493529940667, 0.062145450469711795, 0.22420667435975897, -0.028376918136419634, 0.45540504984397606, -0.21389402663118912, 0.5695073698287842, -0.012699059020075154, -0.45245081421530353, 0.040510172944133, -0.21536744418534629, 0.2658348315131705, -0.20637782302381416, -0.1410955903192328, -0.5975252441447283, -0.14303181689143424, -0.7664979445542724, -0.5008740514586523, 0.24046422795897315, 0.2484918287058295, 0.1345414942982302, -0.30578470553332915, -0.015087655566412029, -0.0011392228885987775, -0.36630707789614664, 0.47541628640133404, 0.2774463171361604, -0.06987500705991087, 0.008502048802728857, 0.0658964298335703, -0.645653256240496, -0.07816435148437777, -0.21566235520301702, -0.31674005812683226, -0.08889171764600436, 0.5684783943841929, 0.20265230638630494, -0.18062265593476814, 0.1810665738079656, 0.4425150435751084, 0.2923948439314262, 0.018856778666614313, -0.20457937196796533, 0.22079759864489956, 0.12443100439219433, 0.28308495212278945, 0.20085895988277924, 0.3318977104823396, -0.16925623524534805, 0.4165965823393824, 0.06248648155768783, 0.6562551096524414, -0.21794032408048294, 0.5489599553610406, 0.06258488492503526, -0.20599646002614547, -0.15301813631019248, -0.10130271361979735, 0.13413304965109585, 0.16533509837578925, -0.18141987060934797, -0.007701598302941574, 0.6774453697079199], [0.5462971173785942, 0.13797765932128792, 0.01201775500199965, 0.03795723830015296, 0.19401141792771895, -0.32343540799132287, -0.08138960745453351, -0.5276526140935845, 0.12624543620373366, 0.20466132618736596, -0.15279697554251012, 0.4977383178952806, -0.3876211372713786, -0.46307599697992613, 0.0709778971616366, 0.3311215570350646, 0.532504692003613, -0.14511194530732832, 0.3411088302011595, -0.012177447282936179, -0.054589545413804015, 0.27943780794998907, 0.2062826065623491, -0.49849897016959366, 0.46692305622754066, 0.4364232058212013, -0.1978202956018165, 0.12516406716048267, 0.1562260621530728, 0.08243228262569051, -0.17402176942808953, -0.21238595724775483, -0.008080906782260424, 0.3708494779035062, 0.17190146249380509, -0.11719854228941179, 0.24403255930640028, -0.9007882693255979, 0.3632716111054385, -0.5501458017717099, -0.11461388921295215, -0.3540707094539338, -0.409414230770605, 0.3670856617052121, -0.1479001060542508, 0.10957414843586688, -0.014837589839181209, 0.15085355509159207, 0.024293214991173446, -0.40571776487212546, 0.3150472306704695, -0.15613954124920892, -0.4922344164354211, -0.13538190095018948, 0.47458191592018556, 0.26886372212749393, -0.11025348558079963, -0.11044498360078607, -0.10170993371918416, 0.6567253754214176, 0.12077859482181483, 0.13599110938543313, 0.325804235032601, 0.07551176230799382, -0.08191631907708892, -0.062091274133885946, -0.02264230630850153, -0.01177070469765759, 0.23009666507217344, 0.016426731422608067, 0.23168113491228626, -0.025524823808256124, 0.024866630563966218, -0.6318865385229048, 0.2897682535105695, 0.10956927668380123, 0.31559850750313684, -0.9158763680604425, 0.6604020674988829, -0.0441421162706317, 0.3504381764751518, -0.3288471282025753, 0.19377612307135036, -0.3331192502297745, -0.19725306495147923, 0.6052698591194776, -0.06029906961212048, 0.06875831174424621, 0.27513957475904455, 0.1567483760885853, 0.04756663434025182, 0.11541080249316014, 0.7600267413299509, -0.018220663466508316, 0.0635931022907899, 0.33224609250525733, 0.3495979960529838, 0.3753719417216435, 0.20198423119972794, -0.3614498900990316, 0.516536404401036, -0.3625062427179938, 0.09570173709000589, -0.23852296701207307, -0.020282326059115702, 0.10396380256058067, 0.10162207433523153, 0.1334230575479634, 0.5103003096106125, 0.14342013897977285, -0.07720910733614969, 0.3048711314733265, 0.37614359545559506, -0.3882036769255825, 0.18891448950692355, 0.22173028989287535, -0.0940978419156741, 0.43503669226767655, -0.04745174306564112, 0.0397107613456232, -0.05473011635374681, 0.0049265274133575, -0.34667262166878454, -0.45538407355336946, 0.5042267740461699, -0.26783269508131374, -0.3135057879147523, -0.6809617449876476], [-0.20205744604206574, -0.41839772960893284, 0.5192507858557044, 0.31933220224844683, -0.21761224633926748, 0.712282742820368, 0.3104615067037848, -0.10272070273909041, -0.7903814855841879, 0.7244596518032379, -0.4394213968831588, -0.5203207699570823, 0.3233651633092814, 0.7715174530908729, 0.4377455009554129, 0.17832372127067855, 0.18807783679362855, 0.26987369563710817, 0.23999429251457796, 0.08892053582492924, 0.032951282319190076, -0.019793685003672186, -0.23842453759311272, -0.08875725253418423, -0.5353599513159898, -0.031097720492233336, -0.3126199573184471, -0.34898558438319077, 0.056887525538759864, 0.4401897733010834, 0.2903972088122762, -0.49663589741185277, -0.31294789481504404, 0.2974979711105202, -0.31068979359832555, -0.07103523919688436, 0.17394174646740657, -0.30621740369632017, 0.033322660901430476, -0.4218559020674904, -0.1901691466015015, 0.10112392664643806, -0.5037488496335418, 0.13929034237206905, -0.006210017284072259, 0.17471266403207927, 0.07080786639486264, 0.43137908070387754, 0.039599464722917324, -0.13578995498529017, 0.03867386617333656, 0.1718059220035281, 0.015450910886523075, 0.012836219828249057, -0.22198926319751977, -0.20962767624764841, -0.44354273170465686, 0.5532647449730208, -0.3933440921582623, -0.219115862760455, -0.22718032468121252, 0.28299993647515126, -0.093271277853673, 0.3945706882068339, -0.21297643553792417, 0.08822570065177218, -0.2641599325010816, 0.678355716448747, -0.3755515949748314, 0.09797391106084301, 0.200417847210277, 0.1308547641668711, -0.05859310243738762, -0.04105290985944406, 0.013854403909863122, -0.04648611457498053, 0.3048053398143371, 0.6990287505220681, -0.17629438174576653, -0.4331697361155001, -0.027917234929507782, 0.8157757208192018, -0.25414421323361536, 0.5183342456262334, 0.5305355804800232, -0.17505997296850845, 0.17992824803214122, 0.5149442263213003, -0.1198907185674834, -0.06437776248007326, -0.18394365595261217, -0.32089425399755533, -0.20531958760112023, -0.38704389629628105, 0.010778139025720864, -0.24348691475044087, 0.07392959661179768, -0.4920174043542975, 0.10463351665231033, 0.2635850014399249, -0.6304745682785162, 0.11828707344681903, 0.38822302289797145, -0.382522077023052, 0.5289138293911374, 0.13250544525041297, -0.22294432416186682, -0.01763573084051592, 0.17655847225382276, 0.02403501513158225, 0.17036960391949973, -0.2911425535701833, 0.05355659503569973, -0.44705577714187983, -0.03517276890315127, -0.28584069414595936, -0.23259499058365493, 0.39088698338545647, 0.3451025614670917, 0.1926263871701711, -0.34541962536408566, -0.10005713719583825, 0.3836151756245815, 0.04481482300714822, 0.7334363990852716, 0.12437802168625167, 0.06073126307315016, -0.09775120891378086], [0.04222934199116841, -0.0482151957435722, 0.22392362492637233, 0.3025358363830845, -0.24855169120920853, -0.4209728229515731, -0.5806591230845699, 0.1606409624654829, -0.3489151569679443, -0.6808037826880292, 0.12287934403276712, 0.7883556680788264, -0.0019197907939463073, 0.26515406443057105, 0.025876715248087327, -0.031271654110814916, 0.2906375030138344, -0.09179287064033312, 0.08455687412903057, 0.10172977858588307, -0.21126875165271713, 0.3137113359880297, -0.05532713300263858, -0.23898760346446116, 0.1696593092783119, -0.2841205227194367, 0.008911664438608375, -0.0028836799371115287, 0.34339032891051013, 0.15011276171576815, -0.007914219254172426, 0.25860040991996386, 0.43962222752548874, 0.1763951070388174, 0.003273785845493836, -0.41483904113603653, -0.3368185142283361, -0.09652052639122638, -0.1927446820488334, -0.059125517452344935, 0.017914279195233845, 0.16750355638553469, -0.022293671092543287, 0.1538453279906792, 0.020388600160647256, -0.6246973791190383, -0.2970439331278514, -0.045564485856673116, -0.3825390660909567, 0.1897141220560185, 0.4840659160404627, 0.3854063376687872, -0.06749656224647996, 0.47140899599897135, 0.047012777870427604, -0.10659594360227394, -0.19397495396032946, -0.09564931324595417, -0.12275228814681625, 0.05389034129482915, 0.05077795130782875, 0.0009632361483565237, 0.13817198130637415, 0.3765154115919549, 0.30027538296265976, -0.4695659673258541, -0.8076207750732326, 0.29545789827624586, -0.43224499721591175, -0.07107706091840008, -0.37002222821795333, -0.5698362481819738, 0.17122554892158243, 0.2400659404026605, -0.1823085961072825, -0.819359515700132, -0.17273766156998285, 0.12389930534489639, -0.46767290152989993, 0.057983497808789, -0.004841399402031119, 0.18318805679139616, 0.037814632763078136, -0.30771141735534485, 0.3783891328507752, -0.0501314527259219, -0.00863445353134424, -0.2951252417928105, -0.1401781560092061, -0.279799185622362, -0.05469034617099824, 0.5412897487474903, -0.4338332336251295, -0.5102529161815681, 0.4652249060935637, -0.06619395880016445, -0.21157937744919306, 0.3288467361656995, -0.19151244919607008, 0.5774349724399939, 0.21437898381863535, -0.1542911346120452, 0.6822007568907263, -0.1915438769444067, 0.23467116166193744, 0.09464462408735978, 0.41164673987846007, 0.49379319735121174, 0.01012060056233725, -0.23825165001673726, 0.14545596319161444, -0.2143124173719838, 0.6366889514121343, 0.0431762627306634, -0.11552481804923376, 0.05840104055096632, -0.42599873708052793, -0.3072513368288213, 0.3796042084048078, -0.207728210348366, -0.3310623212720023, 0.1697045010584907, 0.3749525759859628, 0.2273529993020237, 0.3149779345286146, -0.23931962019083558, -0.4496160108426841, 0.4747633868037845], [-0.10204032457572187, -0.07932036443684437, 0.42001186631357873, 0.17589537326429544, 0.14416437171976015, 0.6846338549492854, -0.20349833238422146, 0.2934088109239064, 0.018029133119843995, 0.0849363363142993, 0.48334415591170654, 0.16059176671493908, 0.17022416653348862, 0.339156599314146, -0.11540818636509388, -0.2653813983223477, -0.33039767733912445, -0.6218165514508618, 0.6502297871689221, -0.3488651169432546, -0.06996653910965904, -0.0875360514276224, 0.09721053330678511, 0.25795875637810434, 0.2721056089407179, -0.18438527581347547, -0.0528485262035823, 0.08935962646406367, -0.07864303926123464, 0.5082873007218498, 0.15525991212678927, 0.23238876057793356, 0.20962146272510326, 0.3710850164317456, 0.057244043109759134, -0.4100942698013416, 0.12639242808658355, -0.20597713540345688, -0.1671632723489594, 0.1854245837235784, 0.3915794893759272, 0.006726663190900517, 0.09766157364642028, 0.5382876292224767, 0.07613284011112076, 0.8227244390809961, 0.17882985189903688, -0.5568020738134879, 0.2382275378893895, 0.1205328645500669, 0.4078556321376508, 0.21287863483629518, -0.043783626506851886, -0.38715709620014094, -0.06609895769712251, -0.26895818318623327, -0.18357763365213542, 0.18612483395568435, 0.5280701708725002, 0.12480609618636915, -0.378171429124762, 0.14059570853638048, 0.3784081017673619, -0.19283028558817747, -0.04237994922488299, 0.00464481500603429, -0.2482066400963814, 0.20500427334687005, -0.03824716283811129, 0.13266780750830376, -0.28064966874377645, -0.13833646103679506, 0.22843704299808618, -0.11790019478299545, 0.5461139206673745, -0.12637605819639608, 0.07105154888262478, 0.2949111153710117, -0.4485266271202476, -0.5568166369954431, -0.48245488806598325, 0.39926415043515007, -0.17451286863376267, 0.8089736451327421, -0.17843075760379137, 0.05836024632549512, 0.48765798525287124, 0.6343822724448258, 0.6519046706754493, 0.3821189536306567, 0.3238370047989192, 0.18737347345066255, 0.2461393842706377, -0.17430022773496268, -0.2587372050621074, -0.0010670971285843302, -0.05381710299147696, -0.14332329353493345, 0.2202170467914052, 0.30209403197050205, 0.027956712152575502, 0.4672360367547829, -0.36103379804818103, -0.06124049817605406, -0.22667912107523058, -0.5902507046056399, -0.02614592857677678, -0.038499942594162, 0.47859483128421604, 0.19948016978407557, -0.32387631144150414, 0.5863155502402863, 0.38612475776726624, 0.18407545637141215, -0.07162056061761904, -0.30340132645796614, -0.11770211729327855, 0.34429254376297064, 0.5959585173916265, 0.48801645336545724, -0.1545877605700964, -0.3540541197224901, 0.044552143123226653, -0.5592296299081748, 0.10219460430542143, -0.046676036123535526, -0.14737368186809616, -0.504289388421978], [0.1555931016134351, -0.1687964915620413, -0.3698349912381713, -0.9082827959200407, -0.002219096150003525, 0.5642575683319673, 0.5292077052641827, -0.1445357167241086, -0.1904418014816264, 0.14864192807621598, -0.312287127802041, 0.10145335909239542, 0.23438373173153756, 0.389318260712354, -0.028806666983494992, -0.06438411173492432, -0.2775772306576444, -0.2614152917713081, -0.07121175828310056, 0.11602593644023534, 0.2887205084837565, -0.2548606756320867, 0.47181080504668504, -0.07623188356043765, -0.012913205067399895, -0.23631966968577503, -0.7667532584844541, 0.2756194854745023, 0.2413884309539669, -0.08896992699784506, 0.01715576886100854, 0.17097031673823687, -0.49410745334497097, -0.16729510253889307, 0.2530931171510021, -0.39658158879570127, 0.08737247958446878, -0.4290239297754767, 0.14337544101415964, -0.008554681132183516, -0.5107060090380302, 0.36638742627159315, -0.22783278681291055, -0.254201861607455, 0.06345339252937328, 0.3643831335365656, -0.32104535495568665, 0.019501062706869497, 0.13558393765967655, 0.21221091420343594, 0.055686775984047816, -0.11599256685537573, -0.26206565661538445, 0.016879765142917898, -0.33908556464141815, -0.9238402141989356, 0.13975409942500264, 0.2873055365998315, -0.747222786259945, -0.3193789277170671, 0.19577577539531138, 0.6412668698646673, 0.006254542732669557, -0.2315010946510714, -0.05838418992007251, 0.4360567427062847, -0.20388257610277943, -0.2525443209650267, -0.15264406017756782, -0.302016566889997, 0.035303382651862426, 0.5052311857022483, 0.10173183210520324, -0.07981890252102515, -0.09734340352970702, -0.4942279455750578, 0.28431794946629746, -0.02455638171085686, -0.05703240600386427, 0.9997342909745389, 0.09454112171389656, -0.23782470658813798, -0.14157513879567662, 0.3625923309882659, 0.03713550663063594, -0.45493643567970504, 0.2907431713901042, -0.21126513026731877, 0.5857050364185044, 0.34199885683089454, -0.1415011917512888, 0.3981065676073539, 0.021551000493009308, 0.2685270958489692, 0.1635002237471126, -0.26263220589149155, -0.20282186235690133, 0.31471278837762334, -0.10554104563545062, -0.12770288229620436, -0.3019520414583611, 0.1339667148479858, 0.6555256955090502, -0.33750302928987197, -0.003213511055572229, 0.4431820541526888, -0.025395033709179685, 0.14582307043581286, -0.33543047314707675, 0.13648987527196904, -0.05901616428769719, 0.3118069419471601, 0.3829385994271948, 0.813106922459921, 0.18251861754967558, 0.10290447148210559, 0.06151468927280749, -0.11161768490333794, 0.10746642064267334, -0.09313303908787782, 0.06381066189066881, 0.42021171515990124, -0.31834500691104695, 0.3559361321841002, 0.41157845056638453, -0.03410772165541007, -0.6709278919500177, -0.19218030595787713], [0.40497293682147617, -0.00948987008350031, -0.3158440367008584, -0.1596156822612974, 0.272128092469754, 0.17582896513514035, -0.07258627679125727, -0.11598598180920552, -0.12407997896659619, -0.28905416794456695, 0.5134811561118033, -0.09731035277839999, 0.3788880372841911, 0.48212579197834565, 0.3167152714706457, -0.13646012958905718, 0.12775564547754423, -0.007331457263659052, -0.2831182182424898, 0.09797693858208815, -0.3742877803742599, 0.37634237594891234, -0.14700227035785612, 0.07088773803146144, 0.08489864056467261, -0.08191278637020387, 0.18427453880560682, -0.15315179254226077, 0.2815347452425702, -0.4256444083584375, 0.03685978010706925, 0.6160843979494468, -0.3163156949583748, -0.2143139056309891, 0.16402057210690146, 0.05738316772730644, 0.1066764632000598, 0.15417995485155472, 0.19646710933178965, 0.351041051287774, 0.12977517638504554, -0.07491221550477231, 0.21550168443251572, 0.6058513814089549, -0.04190620560596626, -0.3073106593112902, 0.35135167498228614, -0.03807284027643144, -0.6870841575795726, 0.26269037341477963, -0.16942754122437695, -0.02853557876912644, 0.10228962601584593, 0.052332868702597686, 0.22379696939592936, -0.1377494542081262, 0.1668339941345279, -0.08444310932774522, 0.23363506996135902, 0.19407445159103318, -0.29583512849683663, 0.33891068375664285, -0.17200856097382522, 0.25241725164766704, 0.11576184727616012, 0.5835775276838754, -0.0683000441265824, -0.10865636354018159, -0.0061242866498763095, -0.09985066716094589, 0.2534288640667798, -0.5176320574085803, -0.33664645116927705, -0.33769201162535417, 0.2972068332535888, 0.5422496944075951, -0.029114459977625632, -0.05331069643417543, 0.02220500249623843, 0.3602464284677106, -0.2931673338654873, 0.07474365270969195, 0.3019531516070268, 0.1610610426478593, 0.061041506944134565, 0.3159778584342465, -0.8547622651684887, 0.21438980633533208, -0.2109458401039059, -0.5755820899610551, 0.16159707481806582, 0.42900951312454383, -0.04334363271135631, 0.30045064888774764, 0.5134524895515902, 0.4186070531955017, 0.519482325437525, 0.22629961055615785, 0.026303298500738887, -0.5066616582924247, -0.07770206556179692, -0.2666411466662916, 0.6868208203434603, -0.05551509607999931, 0.030712056228116815, 0.17605594494746812, 0.01226270158220136, 0.5358537163598034, -0.1931788447718413, 0.062348562107716825, -0.23312042837423494, -0.4173082629459821, -0.18839605075101687, -0.021138774378442426, -0.13634485121292778, -0.2203006456423328, -0.4446580460128808, -0.026197833590702015, -0.47257717618768913, 0.23808242389809506, 0.03623960303744558, -0.45813661121244537, -0.097843409552511, -0.2412983547981231, 0.09720124970106682, 0.4235506428602724, -0.5929014379259123, 0.03641336471991431], [-0.05056435024123006, 0.208865872554888, 0.06753438072701945, -0.23778779069423397, -0.09858417976092661, -0.2517015431083817, 0.3402813990023224, 0.006749325257692166, 0.6008814121443197, -0.015180631594367246, -0.22396325947532386, -0.4786535430177105, -0.5701892297888396, -0.5008995578294557, 0.0824650366716718, 0.16089440007817885, -0.4999561172019268, 0.28349710695904334, -0.14872732869612515, 0.0387186179680374, 0.5075876265627516, 0.2860667529185114, -0.08476243236123787, -0.2818063449302471, -0.6804253447878265, -0.22744451387250947, -0.06873444883674555, -0.31210708860430963, -0.042193521627508085, 0.02429683886484608, -0.07114801003152033, -0.21076238742580106, 0.05334524019025596, 0.1397594890165402, -0.34475078675294923, 0.4471188450527667, -0.031225559757435507, 0.0051229178221554005, 0.22207242051781406, 0.07039348424350066, 0.30165882675772004, 0.09570954066303555, -0.19469896272698636, 0.12034598439583834, -0.36165225487498415, 0.03429804875378812, -0.008584310356556357, -0.06581585724832845, -0.04066537659561915, -0.5950237883170764, -0.17362272018663188, 0.0294265070575692, 0.04639829304924216, -0.3249552300208509, 0.3993644870959452, -0.27393448177626223, 0.31219403876008234, 0.1291117064596218, -0.2043531158418812, 0.560603467293057, -0.3774777354921028, 0.2952274204651261, 0.3125012917811883, -0.2157266644796793, 0.4403943293492445, -0.07681783599379322, 0.09484609202499146, 0.08518595288215856, -0.042460283503426795, 0.25028815041536234, 0.2563037071847853, -0.5529034228322726, 0.4071257851472869, -0.5257424999559218, 0.3274914702868557, 0.35841265724814797, -0.34490662875221845, -0.1298573810222103, -0.349617228262485, -0.0671292949726061, -0.09734693733022125, 0.2455740546072227, 0.41217281527247523, 0.44658139251241513, -0.17762868335823698, -0.0670108611168537, -0.5322968039194946, -0.25481947273552313, 0.3068333507436114, 0.5159851409422911, -0.39037751174104396, -0.1874181025825771, -0.008264108567408082, 0.08859421454679331, -0.26324175373570186, 0.13232096300914062, -0.1492311486237054, -0.0045340547176611545, 0.17653134628121026, 0.0019772770543044034, -0.1379194952445701, -0.034649716736079944, -0.03174473411582351, -0.11693335764464212, -0.08172764319207998, 0.5128571084150515, 0.1750337983738306, -0.09736742688947615, 0.22609336279833434, -0.10555009358828332, 0.37362670950149474, 0.11697590378224239, -0.035026633372807044, 0.1329859737489972, -0.49674277753269747, -0.35845394007624565, -0.37751067772984376, 0.045261070452460604, 0.5529016731340224, 0.701333361219243, 0.20539702003699511, 0.15849538349294967, -0.56958909534581, -0.17158380190770572, -0.24905223684749195, -0.2011489858574117, -0.053114875821707014, -0.14926053526884525], [-0.6258354713458504, 0.23307948941451287, -0.33911544328274995, 0.07566229255911014, 0.6581920627430841, -0.29071100022745267, -0.8001291053532351, -0.09043248594850337, 0.3478261346669297, 0.6232858425759338, -0.388763091604612, 0.15709506349216398, -0.14713048440192972, -0.03345559890061343, 0.8342069617874364, -0.47525952687267975, 0.08029981245258389, 0.14835870728798964, 0.3473857724346732, 0.023283585450349767, 0.09517283289094296, -0.12138889195320603, 0.08525982593796265, -0.1085135449903789, 0.1965967226032101, -0.1169093171686966, 0.11728041005409576, -0.009187226274698897, 0.35540193107462126, -0.01625798279506656, -0.5607244017252123, 0.3938410936725795, -0.28640575206516294, -0.20673348407674808, -0.18830096274444982, 0.435578338336633, -0.6754087405556596, 0.991405352789952, 0.3320698411083206, 0.06723841115804277, -0.017108448876088256, 0.09521303450105494, 0.16376412142844432, 0.21006361555693237, 0.17572328767418666, 0.028296354228246567, -0.06047995245337611, -0.047840340950369216, -0.06165365657803419, 0.35859871623052564, 0.18759844783724153, -0.9297661577775238, 0.20326130061510772, 0.06160517580374182, -0.006803704106533881, -0.12288626702203213, 0.36110040818086303, 0.29365516410889975, -0.24440347561106807, 0.12792210514722796, -0.3072814652495415, -0.43170822068807074, -0.20209600722585042, 0.26905482728147584, 0.30146274208791307, 0.16450567089130863, 0.23284857139769172, 0.16609486596290152, -0.2028424220299351, 0.1304739629206194, 0.2584922577863478, 0.23855879902666668, 0.3706246034650423, 0.2239689707030152, 0.11210937232022439, 0.34052842803465616, -0.008299510290185002, -0.27881974735915394, -0.051529012791875634, -0.23472419696154023, -0.21344806134381955, -0.04667707015190083, -0.2527683736703096, -0.09215856757644185, -0.5986690800147997, 0.06660029720722876, 0.00043429961474490794, -0.25836709434804295, 0.21019225925616097, 0.30157870394220554, -0.508397190148783, -0.24125920627751773, -0.2431380420564814, -0.2972239807673719, 0.2550803349597355, -0.06307212059629935, -0.08303692779454577, -0.6336407642855157, 0.20471792310469536, -0.39194153670289006, 0.019030201818549, 0.08772623612803955, 0.42647611514598144, -0.4138109471941324, -0.9547427259368099, 0.06545881585787808, 0.5670271230534855, 0.3878608913875776, 0.07199715696100004, -0.15545611476532262, 0.2578867017344846, -0.3077775607288551, 0.1495428371427485, 0.15124914971352466, 0.3352796892823398, 0.870542348508337, 0.12413438448564772, -0.16088993541351163, -0.0030549823557054732, -0.5636966206415991, -0.21606003584305392, -0.12931201701504372, -0.16577593488154002, 0.04820356228305875, -0.26000515882212993, 0.34968128673883764, 0.00012234797540343597, -0.0029134063029867094], [-0.10368941369160439, 0.04907560326335032, 0.2609189809802158, -0.2742106509599568, -0.20811470711911315, -0.0960466035612105, -0.4256017554769534, -0.25907208277146526, -0.1505942629716146, 0.27650613724607903, 0.08302918251269073, 0.06121850519515621, 0.26907756168465774, -0.043440773759278975, 0.12347582720111264, -0.03264158433418527, 0.0839149429356241, -0.18428446842348195, -0.7712217016852883, -0.04246279948078762, 0.44991246468350415, 0.2928950275012457, 0.30528548987054066, 0.39089885666156166, 0.028035991930169965, 0.06239670535290354, -0.19531867906927014, -0.0999510131599956, 0.19472393506974783, 0.38070168610833305, -0.0440967842379706, -0.14236234550872448, 0.000166955249770566, 0.19011826712809995, -0.45658698295856226, -0.7261161731810024, -0.1740950380246716, -0.38602316339582915, -0.16068803952536362, -0.046732240080905096, -0.14332973183603354, 0.45931056363766837, 0.10332576696788925, 0.09501833548507226, 0.19675917516056188, -0.3601306527018031, 0.32859599917767496, -0.023958771074968074, 0.21202458774777924, -0.3389510182932776, -0.49134166350633884, 0.25863941940553037, 0.11903114354527433, -0.28525374786649177, -0.27501161337881636, 0.35589372767312416, -0.37612506575529364, 0.519458798304415, -0.28480128294613893, 0.20187725247832636, -0.10391828645795984, 0.19074461382060476, -0.17206395534705216, -0.05147963701063053, 0.012939779422640053, -0.31691950027187366, 0.2342692277630927, -0.16229237961484336, -0.07228964053961236, -0.3144408813726898, -0.8102810487105917, -0.060408282614246314, 0.762935985034424, 0.24811366116922404, -0.006090666856043595, -0.08313337962684457, 0.007104339095527164, 0.1730142555369657, -0.37340579866916906, 0.35237946012923443, 0.22622343523217145, 0.22711026762580167, 0.1386582033363826, 0.006203331839287443, 0.21277740548911592, 0.18714806141022614, -0.11195750309989302, -0.18138880722648462, 0.03220978870544949, 0.48984318202238697, -0.3918400623896901, -0.4640722363621605, 0.0521019527512786, 0.01609210427565949, 0.0548154472814947, 0.07714477478726858, -0.07058275035308584, 0.4711361868593008, -0.5062502887210966, -0.261993763297854, -0.03265202213253768, -0.5196219268951461, -0.05561004545777539, 0.5254029988117968, 0.006604887533768829, 0.07295403203348043, -0.3984990885036582, -0.19491059112331666, -0.11864751316744249, -0.1004703352770474, 0.40529135412338396, 0.17635739826066685, -0.3514738667438365, 0.07795165539602852, 0.15755155050814124, 0.3605467833778258, 0.499810850412236, -0.32100096857839444, -0.2564156593280184, -0.3976810369168073, -0.07400357724897588, 0.14747546691440835, 0.3122225884922863, -0.024017822533167015, -0.10114466774489793, 0.04799009086401978, -0.264095374087282, 0.6607701619672175], [-0.5083870551178788, 0.058420100556852345, 0.6399204740047685, 0.002150299654469843, -0.06009561949451827, -0.11303416752828548, -0.057044858531746595, 0.4341328062265826, -0.6994521509574633, 0.4849143136958682, -0.4502947892230073, -0.08432287037698535, -0.1357390041062385, 0.18611688568150006, -0.5053712936133045, 0.1461518297091388, 0.6401429098983882, -0.4310734701646112, 0.05999035758305124, -0.2093371452275829, 0.13467735978957612, 0.006055058876370936, -0.20285597217612855, 0.15427876274631008, 0.570584971874566, -0.06036907958206737, 0.22760744611839603, -0.40896881831758625, -0.30245173877839754, 0.1493879819064413, 0.4693186962137099, 0.11245481485225586, -0.09899764162596816, -0.00022407727998438544, -0.39541364432342035, 0.19116453117629734, 0.27901821318132713, -0.14296351598961374, -0.1486403783197436, 0.0840780785953791, -0.13810290650358065, -0.020912968983976297, 0.6639903306450051, -0.07811638549565046, -0.1133171057478052, -0.20477069859851588, 0.23533416463509133, -0.05730811544500918, -0.20534978521995104, 0.4178330223547346, 0.4489178867481386, -0.18987060285741478, -0.590251758999945, 0.31860380336851124, -0.21649896034858307, 0.2500177669789663, -0.6230015290962575, 0.2822640622429663, -0.3830061934587651, 0.2310879048576696, 0.00451354035612234, -0.3016621315112004, -0.12871618392456638, 0.21703295241954085, 0.03348676634220531, 0.18480761124605563, 0.6250053907063454, -0.49465663038196384, 0.511407519756666, 0.03300024499355834, -0.2842204717327925, -0.4206821059692006, -0.0598051186836527, 0.29145135594304045, -0.040334573394400386, 0.47786914769744926, -0.4589020465629477, -0.0038228609708518984, -0.39604158110089355, 0.11499049789499062, 0.28045841807897315, -0.13305656204099714, -0.8235247301112926, 0.0629129280146454, 0.13810885654811692, 0.12784922717386255, 0.3907886418033113, -0.3386969123995327, 0.21510321943526947, 0.3771039866292065, -0.5624387783556659, 0.10108278281356134, -0.15943566163030284, -0.025779732794654446, 0.10994495768591804, -0.15407520036922034, -0.2136776563528052, 0.010799942686312406, -0.34381735435746363, -0.3433680547923073, 0.21483669556086019, -0.3632805713516906, 0.21070651363161239, 0.14628421111804582, -0.5457480064222773, -0.2142647563400797, 0.37761054890537055, -0.31027178400502575, -0.14685752239879526, 0.14611648403679184, 0.2477298306692281, -0.07954358000021484, -0.18894931403962373, 0.44979284381459783, 0.549888356010139, 0.3095420946463237, 0.026979965624043648, -0.25559606350249753, -0.2626095794865614, 0.16523346822047738, 0.13230913469704794, 0.4432243918997928, 0.2056903796681488, -0.4753157259694219, 0.3326550451192532, -0.3156144825250007, -0.12142237754413589, 0.07912025227992543], [0.6310854720068138, 0.9834425974598857, 0.1918626775815369, -0.057931857479786686, 0.16902552714238567, 0.28070129231680807, -0.10140400686387462, 0.5676956766082122, 0.07275476220489496, 0.15740018511369155, 0.21058373856361604, 0.13331739205721985, 0.26529628028455343, -0.19519259624850804, -0.1765505164136356, -0.34789931536660695, 0.13898249232068527, 0.24632135037460268, 0.14476049080633582, 0.5295210014095906, -0.0017696165328975535, 0.21147467979042192, -0.34522612922016005, -0.12241167413926246, 0.21994835125538684, 0.26850966360048617, -0.09296051114263307, -0.022641671463553406, -0.4799938240084802, -0.11290254657385113, 0.2815638786988669, 0.18189579724505875, 0.15832440259358854, 0.01573982190365593, 0.002233566874010793, -0.20881187878938104, 0.22098895014972367, 0.1331233337577873, 0.15559002113894108, -0.16634682314378776, -0.6809468210190585, 0.3469501510171869, -0.15142169899872357, -0.2728336524368265, 0.21929728709434976, -0.12396528137198946, 0.3351813148470284, 0.1951144130537368, 0.2161635999933289, -0.431953123030886, 0.3832503390362847, 0.08261467186279445, -0.11677568478491561, 0.04534341470021838, -0.5616948996198335, 0.12922736565103257, -0.3255158524337997, -0.4277519026496585, -0.4814122445328951, 0.3518629590959697, -0.19899055722364456, 0.4850072873850154, -0.16943529968958146, -0.5399139927206886, -0.3530760293481656, 0.39079794781244365, -0.049299332535007866, -0.1733836669046344, 0.05060220608340487, 0.15867763368407914, 0.35335253130269517, 0.45805567554615023, -0.11376883514078566, -0.4193330974015202, -0.13074916422780553, 0.08230792313443697, -0.304767332214368, -0.302677695558232, 0.10871527376618156, -0.015385224448589564, 0.010371320591070486, -0.23985728522639674, -0.07285910314197373, -0.29226818249068376, 0.28150545486173, 0.32737458439010997, -0.5838158633229542, -0.2939371428070352, -0.4732441031159783, -0.20555561663496902, -0.026385402787786227, -0.45841806934225443, -0.29151766928531747, -0.31747919694946763, 0.06554368454410413, 0.02192860478689215, -0.22823345414229804, 0.05591566938179077, -0.1728754218749269, -0.08590488866546547, 0.5291920160513142, 0.42389100384024264, -0.4109636713110132, 0.2623844288976808, 0.25658611978063567, -0.3631127346013878, 0.25892022514912993, 0.48633677484559146, -0.3549798363324752, -0.2901398674034873, 0.3218128122213392, 0.0858543556264417, 0.17439211053028128, 0.10770376703175448, 0.12354889826699819, -0.41946731781941415, 0.33119093867477867, 0.3698568304610852, -0.07253972254157263, -0.013748618712863894, -0.48417870506481603, 0.16262163265905397, 0.18090044682657125, -0.01966652637200731, 0.3555517512053749, -0.10564449642987775, 0.17854407062520156, -0.32244617591164415], [-0.007447844055851837, -0.05513565747213739, 0.07124862085290283, -0.11685467518803604, -0.041575285221686506, 0.26121905164947545, -0.13811697901788972, -0.508044287500401, 0.5532670094858976, 0.4368541371591416, -0.40864934518014795, 0.21810475845706415, -0.15905458805428288, 0.0833219734781385, 0.09304183902618703, -0.07412625503095155, -0.24784846550908624, -0.2183682543168871, -0.2897253226753209, -0.2630452786319065, -0.021243640587138787, -0.22634318236072928, 0.21568380104747134, 0.47030852921901145, -0.18342894068927437, 0.07570635037867918, 0.15801430614297401, 0.14926022368767644, 0.024019164690314728, 0.23485680201787765, 0.152500508970164, -0.3913832228955496, 0.2748512805618068, 0.28058599927607153, -0.24137225955608826, 0.011996996951109595, 0.2160876008511804, -0.06619084156203299, 0.33930545103015397, 0.7475221181221302, -0.24855060722059794, -0.43672464962492874, 0.09607587576250295, 0.22817809903755354, -0.07300635764933944, 0.45956137300215877, -0.42330432162366577, 0.21912010819274985, -0.19159001386571273, 0.5437150342186418, 0.6300886788866049, -0.2424381000568199, -0.17378522538698207, 0.27182555719475693, -0.12242146053958505, -0.014360287998815464, 0.008028523510822368, -0.6070539536668773, -0.00437587953408887, -0.21811107315208003, -0.15593912849939784, 0.45651652340735516, -0.3973423681626844, 0.25715805951861836, -0.08821582426033861, -0.08846793310393188, 0.24993753901092514, 0.10753366121265392, 0.18044367337090444, 0.3061668722920773, -0.10476890987671267, -0.19360625482682978, -0.34315472680536785, -0.2610177279420192, 0.9325855418880887, 0.39360224322316856, -0.4272472285485778, -0.4181979253122113, 0.15237942821657033, 0.17306032429449197, 0.17357230904516413, -0.080624101028536, -0.03967212037801268, 0.10368460944757743, 0.027161753496610076, -0.7018043989942888, -0.07266902380828819, -0.26923835467850077, 0.05540671558207912, 0.9440217853749302, 0.11620790612508625, -0.09914679223825767, 0.29149922968123226, 0.15263931225555677, 0.1328455422315676, 0.1919030073985845, 0.65033617722235, -0.35761832351739165, 0.14977561356400165, -0.29294743521421585, 0.17566852314691095, -0.29051418319704975, -0.13198297507590184, -0.09331562435355341, 0.30858034120025707, 0.2904407969961466, -0.3939304230419965, 0.017371691199603165, -0.22438885227788322, -0.3979741964240812, -0.06862681704326212, -0.09755082304802867, 0.7673951332332749, 0.13691391834885325, -0.435640904689212, -0.1785972216433614, 0.32298975776055466, 0.6604235925186669, -0.5015319597689947, -0.5944842885930979, 0.5916511377031201, 0.12320682091848899, -0.2745782708499206, 0.16906456155212138, -0.8334966192932388, 0.0010674289103953212, 0.10366615714118856, 0.29227988142211897], [-0.3206220519669837, 0.027096659626908447, -0.29264496211579094, 0.08075943453387925, -0.28313336733225075, -0.12905281667723345, -0.31490447765968965, 0.20590735912449462, 0.2714660788549972, -0.0741935386992302, 0.01209191572317287, -0.45808482692073665, -0.09476607692660056, -0.015876093890841825, 0.8287675443687724, -0.3516348484449514, 0.46301349726338564, 0.3152344229673776, 0.08874502325491354, 0.5561246269884769, 0.11767008232510794, 0.12306294307097862, -0.016798225433093967, 0.38692645425496164, 0.3467340163142097, -0.1978565308724021, -0.4171825931719489, -0.06418811350830247, -0.25299440794678585, -0.020088234317783674, 0.39131229691520836, -0.14461148078389816, -0.01354194220544653, 0.018348399806646244, 0.26829740249947215, -0.7105287945730125, -0.19185547885538687, 0.06681377000532669, 0.37949828743468456, -0.15555321207310216, -0.5934180700444738, 0.19596996613293566, -0.20091922882945032, -0.3762056299088601, -0.19743534781192493, -0.05835204162496732, -0.19123705427752108, -0.6974612270390043, 0.2836772394108387, 0.4031508862541944, 0.20602934383213353, -0.35976779798780834, -0.06371721765152948, -0.002062220946503106, 0.18935541211457904, 0.21134781968592037, -0.23216614025581922, 0.02592927162796782, 0.14460476079475346, 0.46037144064991736, 0.22278452923302466, 0.24952163350940684, 0.026508307282826483, 0.4460263445457229, 0.12957837356308524, -0.2722999061782958, 0.44378455054780563, 0.22069639277085712, -0.14010282104857671, -0.15162898990144724, 0.09378542209508897, 0.14647189306043476, 0.06238929241295699, 0.09844444634450882, 0.5375737228861378, 0.3388516972218784, 0.06028426714903767, 0.29766854208411353, -0.32651272737149895, 0.12583558204235007, 0.5721529050161811, -0.06895216638907152, -0.2680453836472891, -0.2062086124841863, -0.3445722211769252, -0.24816350506233467, -0.1171649483082712, -0.444479318461808, 0.0049389508537879085, 0.2853250949945377, -0.28705770893583893, 0.48043976111853276, 0.1615266410541562, 0.3258981962922202, -0.20802555137334458, 0.2702246035603071, -0.34529981796006226, 0.28152097839160223, 0.0543403705367167, 0.17495339734187831, -0.3717556558781925, -0.2830459366521742, 0.1888601452604844, -0.2998939707823458, 0.14647869095544858, -0.43232693437408365, 0.26821623646467085, -0.3897580943929136, 0.17465257546363444, 0.19784187249790341, -0.2203385955654743, 0.18405296107165245, 0.08235907511033942, -0.1703967564201959, -0.31893299465123703, -0.6206367380048711, 0.11056905334526385, -0.4948340846447795, 0.03015048319198874, -0.08330964083281084, 0.2147638026832956, -0.09551517353911972, -0.10418053749573322, 0.23143783783025754, 0.1059546520232752, 0.09997729205282505, 0.1483954415892561, -0.4855905420795157], [0.23931759361911498, 0.19367963848594835, -0.32150343449675534, -0.0771850229183243, -0.012430055754667104, -0.04253161766780823, 0.10557579139042392, 0.4526379197691858, 0.34208467564332373, -0.41496014406323056, 0.19671580334059782, 0.4202456148220232, 0.12231959437382439, 0.3449983026246583, 0.6363357876656598, 0.3237253828155219, 0.0788383002485791, 0.33048599344976765, 0.04581755578325037, 0.0075588059790052484, -0.11112693870626815, 0.4943947138243586, -0.25880986867498, 0.4845772222912656, 0.1580709151623819, -0.4424994656311849, 0.11626091460034715, -0.6640866910908151, 0.1978030027881011, 0.2799347742733811, -0.18731940054261803, 0.03906921188856133, 0.6179588397200501, -0.15993115045913064, -0.3348559806731891, 0.4685431077496547, 0.6206245628748155, 0.0011686740523760791, 0.31985269609579436, 0.4242119319337229, -0.2347941301583396, -0.15346718015331634, 0.3892366975419848, 0.5328483010624655, 0.17799855694657235, -0.2782217275175032, 0.6283638962916488, -0.16790774083503227, -0.10597987184768809, 0.10825672862369501, 0.491468677874422, 0.2700509152971573, 0.1311919903769046, 0.14650469690047327, 0.013760546454086225, 0.17649921180190972, -0.7999171323746485, -0.09379551416557302, 0.07631269636959441, -0.36398261231691464, 0.12216615975176251, -0.0646594774271764, 0.555130158375156, 0.4974325136051143, -0.14730065452043845, -0.047699072559828214, -0.023384273474725544, -0.14282726714629276, 0.06167231501668402, -0.23978984465494865, -0.35753196159167294, 0.1969185792075929, 0.19907473405997206, -0.25434697584941535, 0.2831362476611005, -0.19972241435994026, 0.0800578776578718, 0.2594155544737257, -0.010629226246351584, 0.1438017027628501, -0.16330939259143798, -0.062128188774427884, -0.06509846794078769, -0.23608880268296442, -0.055900898691599886, -0.4897161050624785, -0.15531645222954668, -0.09008554086123553, -0.08101115083036052, -0.07636819780648862, -0.019531554941586066, 0.15161272020007738, 0.27654658069650906, -0.20547380612165142, -0.38048551856925766, -0.32952337657396535, -0.15406709136634936, -0.1112872921468163, -0.2434941358553752, -0.4098680772329401, -0.1442380703059141, 0.05737213477462668, 0.188164838695373, -0.17627264681072963, -0.13060137866623753, -0.2930477359783668, -0.009941938613038302, -0.2682966916148783, 0.1812389280233802, -0.5647405711486513, -0.11372488791300936, 0.09521850120387888, 0.05813357841345149, 0.8516120193686922, 0.11061648032174443, -0.31750994211828576, -0.03018844559145699, -0.5616984099276954, -0.025487878661631897, -0.2634354558721455, 0.2894718218739276, -0.1737798933716257, -0.03692462469884105, -0.2009810363617983, 0.5498730784319376, -0.10158588227853678, 0.5795054199578493, 0.25745739293333153], [0.1524428842563173, 0.11660365943257686, 0.12452963987839175, -0.609583593378378, -0.08819067271148702, 0.2672624171589411, -0.015462647094531842, -0.4443600460842373, -0.016571742335452957, 0.5388854804624443, 0.3943017816684469, -0.019607389365907314, 0.30087467936241424, -0.11589969628047675, -0.538811505481778, -0.29234181418475763, 0.49422882379815436, -0.08664422017094954, -0.07696477208205013, -0.09481716297452367, 0.6021408599115926, 0.5141733554401061, 0.7016399165056215, -0.05029451158048618, 0.09348467165636372, -0.4796044852494185, 0.4670476741247425, -0.36928431869760453, 0.06855045225569681, -0.3469975269579639, -0.18621604110100223, -0.26476562814067356, -0.1922270357004169, -0.17048556802576037, -0.17337781619590098, 0.26352332126835926, -0.34938829280528466, 0.06974132277876063, 0.3851525018333484, -0.16228693987803405, -0.22702588700240048, -0.07289828723261962, 0.373061867153656, 0.06138222250320113, -0.16798470965997128, 0.15301523243290255, -0.34857538404066973, 0.2154647958416998, 0.12921297609268467, -0.09733758518930766, -0.2651841136564142, -0.2803931272234472, 0.16912409149974303, 0.388637758780367, -0.20153440510813986, 0.14495460323590842, -0.6599758917093139, -0.1848723589395597, -0.009821696956632259, -0.2876671547347289, -0.2961493187602415, -0.21117043733387075, 0.09239945372501383, -0.05923863700077499, -0.7077908627434679, -0.6706242716593542, -0.1919076194671856, 0.14473320664358802, -0.8688373185354447, -0.15802855721563105, -0.16641418403765354, 0.4390309540796377, -0.12175458738571449, 0.12111175105368065, 0.044669429843786024, -0.6737442782597896, 0.24292845195346735, 0.06811435572827558, 0.16072865646071263, 1.2415853787574331, -0.659054378984424, 0.5453969686106801, -0.09089888690705612, 0.09086137755142921, -0.014392235658022142, -0.13415530797363776, -0.1801969938997758, 0.10419981133328565, -0.4797724487579928, 0.2373539733641859, -0.1316122268855712, -0.35735930252885695, -0.14230656076286868, 0.39754548839826875, -0.16928781863756978, 0.11335298690708075, -0.23114867012549198, 0.23967593341669532, 0.21677658082488033, 0.5845814415923174, -0.055518194278318805, 0.21144721514501774, 0.031011678947168362, 0.40979063862280013, -0.22731476007405854, 0.235591365761858, -0.06156869100049703, -0.020298083851713382, 0.029014683183603614, 0.07976541706120978, -0.036754850652731555, 0.06789827024837967, 0.49904474785372127, 0.3116265526040958, 0.27485081510856874, -0.14405424664689784, -0.2812026405616057, 0.30209256140616275, 0.2770303201279131, 0.46569935787124017, -0.19099544406770083, -0.07258965847677161, -0.5184504141354045, -0.12411026109578731, 0.3151432662387982, -0.14751879163051065, 0.20253749481527838, -0.06024237162895676], [0.10247583009655953, -0.3629318842781684, 0.026945593901252802, -0.9458802459305413, -0.05910175457269408, -0.5156009114102661, 0.3813689517961561, 0.24583779044978524, 0.14757432209201787, 0.4809844013123099, -0.30007375151690857, 0.5525647604968749, 0.2947848558658031, -0.07480535001671876, 0.3591146221873751, -0.3498407259888521, -0.26073427134914245, -0.19245296860089614, -0.16727743889379063, -0.33411286303809107, 0.38677282596057694, -0.08185694875258001, 0.11147185865333217, -0.18036093844564918, -0.5757253145353394, 0.08539963514052797, -0.6047081189315794, -0.02170399106630444, -0.4326992079373425, 0.6284318496956378, 0.28819819766433635, 0.03344228516159123, 0.3996191395752962, -0.2676286108983462, 0.17186326979306263, 0.06318560708172423, 0.08349048050373031, 0.4023535049224678, 0.23163434128703292, 0.09130243889135586, -0.5233213569678065, -0.3035932952289664, -0.038803971941284356, 0.029526937325193486, -0.3574017989975443, 0.7626391274730785, 0.47952590449405086, 0.19040653133552574, 0.022780055714623448, -0.06710636848057559, -0.3010230480430202, 0.02450149128104614, 0.08150850995450738, -0.39267917271233715, 0.10567586188086464, -0.04909722216374947, -0.6033017220176066, -0.2720776298731749, -0.13079355384612917, 0.5969392508182467, 0.17599755124100133, -0.42231635315312005, 0.15369817000565264, -0.48930048377092145, 0.3423769732571251, -0.14898269615982837, -0.029610362783318994, 0.4192537120448798, -0.4070368597916583, -0.44180756253978026, -0.18455031121932866, 0.3283642243369695, -0.48045941525449193, -0.8956062378025866, -0.14266895791338458, 0.17447576057617353, 0.379556091755371, -0.1464644828375815, -0.13010451684818072, 0.3648954513988839, -0.5912642407232084, -0.12286105678725315, 0.06021732130723726, 0.14205543268490695, -0.1612150316881843, 0.010891204191097976, -0.7868782000883805, -0.20815642491646325, 0.14341204704027152, -0.31062864802402457, 0.01865244862352052, 0.14131349262319481, -0.10832356853810413, 0.05390537748905147, -0.30444276839161255, -0.0653362234121609, 0.19296729609655178, 0.04963920877209625, -0.1854774730732231, 0.07090345263320563, 0.225979457666778, -0.6482483509902564, 0.36653140220905883, -0.10633308482569101, 0.13455173105121154, 0.3786027200348622, -0.4337613089792468, -0.22434494331840915, -0.09124710948384611, -0.24784462509300856, 0.5486351175577763, -0.27093512521641533, -0.1756793169949807, 0.06463348686215424, -0.380153059049242, -0.1251252275346357, 0.10038753561990252, -0.10525970207334283, -0.029531517765260307, -0.16738951140052197, -0.47891756257106377, 0.10169670278798824, 0.5549585647560746, 0.005819106593713315, 0.07123476856094764, 0.21905816931963357, -0.4013975472600063, 0.5383824069512457], [0.06398198329365827, 0.5160384616581135, -0.23180538659118194, 0.5749216602507383, 0.2451256901942978, 0.17488663086685158, 0.07400503039340545, -0.07859164968493505, 0.3796414443916822, 0.044385688080462025, -0.6220420579647687, -0.35328537900986107, -0.05876958703963134, 0.09803028591393484, -0.017894851427082692, 0.3854724096962307, -0.6169925837362226, 0.04540649238799438, -0.5748955091092014, 0.24024212201648246, -0.029870468248816957, 0.13269232405157474, -0.2731837787273138, 0.40460233703501686, 0.32942226331997154, 0.184532911313302, -0.04095694963627718, 0.1833669739374679, -0.2235390575885451, 0.2705504547551833, 0.5216116582995095, 0.3385567856562539, -0.23072055910756456, 0.11429019084107206, -0.4089272615263623, 0.18100570939276664, 0.14249331060908357, -0.5912878439120376, -0.36738830955486157, -0.08953638078975364, -0.09514020572273423, -0.38247018933638016, 0.12300587461110929, 0.07952293756745006, -0.06143329361159741, -0.23900225766959374, 0.3316303117926475, 0.5234856932202946, -0.15291556776857768, -0.19358417664128366, 0.15533350268358198, -0.11321883092578358, -0.044081265354735416, 0.23389886379720612, -0.6037914100830813, 0.41688379912296336, 0.02298359984160005, -0.130125557836142, -0.028218317241850782, -0.01188088112967309, -0.5474539207138267, 0.47274097600070836, 0.013068312372171023, 0.14008957405207328, 0.3009064582024642, -0.3229199226945578, 0.14972496090366014, -0.08463554426923495, 0.26777243057505784, -0.6726883749475144, -0.0313363691902983, -0.1906286292873674, 0.1366935472108857, 0.14864102330064655, -0.22377095589523524, -0.22520915008396922, -0.03499546227431431, -0.2835431684602501, 0.26625862303542774, -0.11675356819482678, -0.9192703904333484, -0.11852914161935049, -0.32841639237608056, -0.5158547068805104, -0.39130866141485005, 0.03459799663105626, 0.4201531209556994, 0.09903762652148139, -0.19179321153710635, 0.14416956515653578, -0.14517710320052887, -0.21965192301493214, -0.3650415277485529, -0.5539769100030391, -0.12330470264229845, 0.04998090202860811, -0.030555087313156707, -0.13154029236168022, -0.2990711639933679, 0.19234433438478699, -0.4165136845941772, 0.2454015735614294, -0.31692884895925316, -0.23794091418049945, -0.46383820405497733, -0.1585572807856913, 0.30842087991288125, 0.1630559185041649, 0.30940423870810185, 0.16511597084303273, -0.3490110442963453, -0.10460473743154612, -0.24672062764909772, 0.4207647294223342, -0.3784578000537078, 0.28261202380992845, 0.2823768075005858, 0.5785767090479547, -0.1295542759542763, 0.2252560452083242, 0.7215216630968937, -0.19531544769563644, -0.48542234822309205, -0.5945113731118918, 0.22537933270014693, -0.5955043833685095, -0.11773762235606416, 0.13829057218703417], [0.05855764633269242, 0.13453747896429782, 0.07029422450810913, 0.4044128791794009, -0.30114888162227027, -0.21408466023900125, -0.24433637026980193, 0.26252970203078424, 0.28473103413288536, 0.1426899746983262, 0.37425355837567764, -0.37252923176697095, 0.5272225562452235, 0.4816903464546347, 0.232624100821867, 0.5634542884119119, -0.5238702560955906, -0.1658450625220326, -0.2325233707159036, 0.22815179477912362, -0.33208366008765644, 0.2395409988435841, 0.433401583061412, 0.2198424600219901, 0.08972995231746743, -0.3123929797006341, -0.26779778916702496, 0.3951641947943715, 0.24645179445243115, -0.012339055443811494, -0.13215460205465906, -0.6406166980933327, -0.3386332680943077, 0.6044437878481385, -0.40491560470192467, 0.059918780570012174, 0.3185817570306448, -0.39684139182625494, 0.05841058079993145, 0.2965949351394762, 0.003952632643455095, 0.9070686903293738, -0.5276574160124031, 0.3347993578234701, -0.05464470738071221, 0.2441025861073734, 0.13955357470910632, -0.2318443463534947, 0.07241501761333224, -0.5875200254551212, 0.19076360946093301, 0.09428598561919127, 0.20196207837394523, 0.3346063941237878, 0.1162516008129838, 0.046829986393538574, -0.27861827181057175, -0.22522398099954571, 0.37527843779351805, 0.4542091365972902, -0.07529713134025542, 0.014547345994540103, -0.2860641829109968, 0.3708582772598786, 0.2104232756260713, 0.6138668532858644, -0.27775014453758357, -0.1195365934432493, 0.07318962703396788, 0.20443794226827874, -0.06820009522381688, -0.2760545354537965, 0.2787255338219224, 0.2280430246935318, -0.28975131188035425, 0.4286286489571961, 0.3700493236050294, 0.04246828130855597, 0.0251710541988897, 0.17520845120425182, -0.2724944368769869, 0.00949678756623892, -0.6806434399231641, 0.277159610790239, -0.4937875133832226, 0.47542309372952013, -0.1043931398322792, -0.06693497683562247, -0.19850689077412678, -0.09108588962638385, 0.4485789983010237, -0.786714173733439, 0.4038119113234966, 0.10689241029002801, -0.3816937592358497, -0.34004363582418046, 0.5301220219602543, -0.2989955283978405, -0.3647214554001396, 0.35965043699046073, 0.10705981974646957, -0.29659810975816014, 0.06850283203565513, -0.3243714796333412, 0.3481102916067119, 0.3356349691369668, 0.16823513176057278, 0.11436726945342285, 0.5569365862621934, -9.919198928218409e-05, -0.3737414143949241, 0.14213613133780734, 0.6596659982811376, -0.3208951275745407, -0.1143045632099046, 0.13169180029538535, -0.01704620997855986, -0.3106316667730596, 0.35476260366420076, 0.7336612945916097, 0.062022213132753204, -0.28589149558987875, -0.4898243264859288, 0.08157916822757576, 0.3490766662335022, 0.15026123495748972, -0.0007601612436290142, -0.18634405802238432], [-0.3453724656992758, 0.26397154710330994, 0.2889599584803476, -0.488802677310894, 0.50275122839657, 0.18153725971786874, 0.4425906879635833, -0.4244180596126565, -0.4319115214388587, -0.04710823203278262, 0.15899439610512342, 0.5680591699943623, 0.2232817575473545, -0.07674255802038316, -0.3245664416486571, 0.3889603333104081, -0.30506664164947106, 0.5149669731043199, -0.08993032243454768, 0.5029862154903747, 0.2146969251343754, -0.04332177758077188, -0.16424755433982693, -0.107804536470693, 0.13544563077754257, 0.02439902643261517, -0.18777965500887955, -0.052377250866963085, 0.024848238568325423, -0.6731648271206726, 0.14488547939977636, -0.30981505421147626, -0.3647157293405837, -0.5335851333879599, -0.5672786170751282, -0.4286301358623002, -0.2242121134906091, 0.6176747735120023, -0.16629775510199912, 0.056209519014395096, 0.12664333418622215, 0.041446451039618706, -0.024489772577993698, -0.37798507659684755, 0.45882357724462297, 0.571485757370736, -0.5321033998112268, -0.3238262736333703, -0.08848379947828719, -0.30501363212325683, 0.16000035665082127, -0.23029989161920567, 0.6846508436236814, 0.376484522323762, 0.0672218108200202, 0.324761571779579, 0.34971642063158487, -0.17833585429946566, -0.2581105558259246, 0.024711006232604707, 0.2724732667693909, 0.04397475920758116, -0.4986900745796712, -0.253875380414285, -0.023392273400318447, -0.023927565020271293, 0.6237726059402317, -0.43828787075110903, 0.15988135646790544, 0.4708989115930446, 0.718295478614566, -0.1278816937164299, 0.15540363798858606, 0.1801740449218837, 0.06181675126620038, -0.031257597169390534, 0.1378675234599203, -0.8007665225339046, 0.21568931111074974, 0.039900956595711676, -0.07035273960301748, 0.6472746594967155, -0.21343287697090285, -0.12746381955706207, 0.6297844516596596, -0.2631208876217253, -0.1739617269747424, -0.046493521199217354, 0.2658635870971505, 0.06571292267303584, -0.40876402582669963, -0.16828647586210174, -0.1920623355951204, -0.024419438620368914, 0.1346635888409478, 0.13224827191983649, -0.5616242294023721, 0.3364476816701179, 0.07986928193496302, 0.43782747638933933, 0.1404678447075454, 0.3482688985878365, 0.14753458158550353, 0.42571396343832335, 0.16515015192877489, -0.030963519641627687, 0.718606955066015, 0.2811382230846087, 0.1814339165188497, -0.40360289439934177, -0.4073986398129696, 0.09256476299625992, 0.04601784327834525, -0.19420260679311016, 0.04458264414534466, 0.5023679444894182, 0.21990557100962196, -0.36081857204530987, -0.03526218729857083, -0.25455275195844107, -0.12260147845079411, -0.13079675793162934, -0.1510447955346756, -0.3969086547278596, -0.040367954758088194, -0.17727970061220358, -0.9263730149003696, 0.6492067570032259], [0.3442991954598633, -0.11899673759354815, 0.005951106058029193, -0.3705096367961489, 0.5362346574337734, 0.5999753654371034, 0.049550907632247974, 0.3236688090605066, 0.05543054651456207, -0.4227096993136128, -0.13022998396090535, 0.04171928620743961, -0.14374060964628932, -0.06914423745554131, -0.02890307788603477, -0.025576026698792425, 0.01652558570543127, -0.33539277077273716, -0.22674041503672318, -0.40622121260268146, 0.3092124268537935, -0.6658640284383525, 0.36479729716570847, 0.43840217281521876, -0.09555789195517114, -0.8231842259192039, -0.11425643184920456, -0.02029681393802773, -0.31957921742871337, -0.16292636168476404, 0.48389020930624865, 0.21026843109859497, -0.29237284442912276, -0.5052052163915189, -0.10341195579655667, -0.06750096047513819, 0.15691196051927192, -0.16928200812674857, 0.16175036803524268, 0.6119494389867048, 0.25788406651199636, -0.01520692124429455, -0.05791726430611492, -0.11278994841992457, 0.37335143821282285, -0.19837392960550493, 0.014300676240294036, 0.016190198136604883, -0.158678094315353, -0.4340117141424647, 0.10213350575941235, -0.019291149737982, 0.15818992612114077, -0.16873923285115788, 0.3860575920294247, -0.27726021413475754, 0.5413946743458109, -0.5526511893124548, 0.1374863662458221, 0.15034438263125466, -0.251577234333851, 0.13420514688087676, 0.40461933051509125, -0.7010196692329753, 0.15898186734938557, -0.7884414615879494, -0.3053700235392328, 0.5151876400423985, -0.18397563272830267, -0.37121343871697465, -0.06259340584727226, 0.6539294016495198, -0.5792287850866631, -0.3324533847490692, 0.4735294759347267, 0.5874570620211815, -0.03270782499370299, -0.3918228680971258, 0.662763908498017, 0.5042069555853924, 0.21470188918391234, -0.256904179911312, -0.015504438922490477, -0.05071031018708591, 0.1046243689423405, 0.4588469432674915, 0.2780960863160187, -0.3406962299848749, 0.43528639731978647, 0.09902107710443181, 0.2172692817310459, 0.4637609397020865, -0.3515125390521096, -0.011329042720605172, -0.16806068551580544, -0.4958006835117614, 0.10963932167375173, 0.7942239175324954, -0.5818836744423561, -0.010208025517832455, 0.20255746139656408, 0.03892074475510405, -0.03577423132088811, -0.4108482881849932, 0.07361363167830387, -0.2393097818537641, -0.6925140485171528, 0.3777632291941509, 0.30306820679086477, 0.016336635299864545, 0.07243977690229302, 0.33972918515269085, 0.07094242849191723, 0.2858754517821749, -0.09407213181210987, 0.41488568669965825, 0.10144135348178226, 0.061364612617710965, -0.4016285807883189, 0.09074340875128259, -0.263087244985993, -0.20184272069724202, -0.25784441340698255, -0.3371730905636073, 0.6719117140725162, 0.42100637738354524, 0.607273525134415, -0.38671336010717333], [0.022532414154644, -0.4090430266440365, -0.21999803684538596, -0.29033724488560186, 0.39199088114721664, -0.12529882593569033, 0.33785120995261664, 0.19103979931868184, 0.7284745362879137, -0.46784134162999125, 0.3982045143119246, 0.36253643531722135, -0.3078094154373547, 0.31848352507399164, 0.10629837071559693, -0.07193430950693164, -0.2605512783871509, -0.22740237535336985, 0.6482074998046761, 0.0002159263135186777, 0.24733122311903938, -0.2501043446088288, -0.2466111550053181, 0.34215363909326374, -0.4267734704484085, -0.13130212224411786, 0.010760412186708557, 0.03521910907536255, -0.05663426942927593, 0.12516920512123758, 0.21910022783417432, 0.23231278983269715, -0.3117385361459172, -0.08985773182031935, 0.37781719073122794, 0.28291228149973263, -0.43413627739695837, 0.11114770368819754, -0.6255697512878984, 0.01484211922676977, 0.6001266241260194, -0.29974999640560174, -0.2638361128121677, 0.241607430997118, -0.48787667656213896, -0.20009470953646344, 0.18861124849801914, -0.20057879663091627, -0.07462026190274737, 0.2353321846745771, 0.13330457626991413, 0.08437538539269028, -0.10723988078010259, 0.1170235997712013, -0.039127709011222096, 0.14477084529680684, -0.15714370416528145, -0.05773337891202761, -0.31305214118968366, -0.011070378305860681, -0.2564609913430758, -0.35229242017371576, 0.0817958369416604, 0.06727422406239075, 0.24756641227604517, -0.13633387573947042, 0.12903764017199817, 0.17417748580759837, 0.1406498276333876, -0.2610946196160963, 0.047232880323113645, 0.11515127233807555, 0.0022700305537242784, -0.6598021687507313, 0.05075127525801596, 0.6996637478315023, -0.11385441363735656, -0.2302381941428109, 0.11806318098313948, 0.0987826636481816, 0.3771759768093564, -0.3977728368867872, 0.23128274338062052, 0.18670784943660695, -0.044950681823738826, 0.10710233392461059, 0.32554303961516856, 0.27585034388852586, -0.3614544435711781, 0.2593567911781074, -0.020456333056178902, 0.023044813215938514, 0.02314692094362044, -0.047511004707366564, 0.3768509995556845, -0.02647394341860365, -0.3540315711314095, -0.12444506721423534, 0.056508231095988196, 0.38871184519312557, 0.19071528491799833, -0.26896287111668626, 0.7858860554789375, 0.08372930508698004, 0.4033139638759947, -0.047976316402637116, 0.16866300243763224, 0.26546324982535097, 0.3852269922715742, 0.3343692170667658, 0.27581290885966564, -0.0996391731070609, -0.18080197357673458, 0.10517972995024336, 0.2950810057240147, -0.07043046965229106, 0.3368369511416244, 0.45935774830374415, -0.28976611719308326, -0.2646575644947373, -0.04439049128211658, 0.09727566685994841, -0.1658826548896784, 0.42760403234014077, 0.1341017162597516, 0.012474251941127485, -0.4540744609352459, -0.4160974961184923], [0.08886292744668209, -0.6743859506762235, 0.3202240658368224, -0.05001263689283351, 1.0255560447598555, 0.7298272000862893, -0.05737923381397675, -0.033626712755404575, 0.31483051806052315, 0.5385904695754484, -0.5179902695036583, -0.5649015226764018, -0.1967046769451802, 0.18427780410112243, 0.15712522551898256, 0.3382914373581253, -0.37937766929088346, -0.7324289995602571, 0.27132791219113234, -0.26189865722326744, -0.6383019080877171, 0.045873184314769354, 0.2508241759442603, -0.03859785421713354, -0.14478437233690306, -0.050394762658956746, -0.11718855907834821, -0.42628992669428933, -0.2260018739000856, 0.16484317983198804, 0.1017236865150456, 0.05314517699811082, -0.31469358127154196, -0.05739633948715395, -0.6884484161099674, 0.05643927670661486, 0.4518444808978242, -0.46616151092931346, -0.18528659918071738, 0.1040727014125021, 0.39618362745565316, -0.14174106908635062, -0.2189087751481749, -0.6226281667850905, 0.03271000855206329, 0.6457611442111669, 0.08770844681295557, -0.007045231816401298, 0.10185136960738476, -0.0035075996293163748, -0.25709771867940273, 0.26034396854129144, 0.07139206210618883, 0.005569799311272204, -0.3084378198549192, 0.41220540130095734, 0.2101974642219485, -0.1748489211848213, 0.31680483541998455, -0.1573457146576792, -0.24729121745413027, -0.24023921967681858, -0.5600610520057206, 0.14911479354191115, -0.5790588541301109, -0.38846804843833754, -0.656358559282241, -0.027217626673019656, -0.04753550333839694, -0.10331041366208453, -0.3296920152846613, -0.3706928610988015, 0.14684664455487703, -0.1740998074404298, 0.10004128528021156, -0.27994021438240385, 0.05725706665538074, 0.412132702239268, 0.18536190157368163, -0.13041670040907188, 0.08133345581748584, -0.07610501049974167, 0.0024919332018139614, -0.10296725561131341, -0.051967355035054376, 0.06706980722966688, -0.3141276024221915, -0.3212490920028467, -0.4390957098173588, -0.506050156398506, -0.3849385863718443, 0.05042647229011459, -0.2823242015517216, 0.16241915461773468, 0.010977451218092432, -0.6224956898102485, 0.20712146579399826, 0.2563970443849444, -0.3142869733905447, 0.13287623290885153, -0.27084852421327027, 0.030886085045149014, -0.3998695063632192, -0.5670300477153865, -0.12105742466415334, -0.039126528272108795, -0.1257573611020068, -0.37442333832238955, -0.12645918704995815, 0.08515847800866261, -0.014196422625376482, 0.05771189320215984, -0.21190903281356763, 0.37052973857259897, -0.37193866666728875, 0.15418010354623884, 0.37374678000192757, 0.1520764918294015, -0.06404378388899803, -0.16706219485952709, 0.3276396832879907, -0.4499841817134758, -0.3067802276185919, -0.125718804044093, 0.3913804828403644, 0.12009307115070814, -0.30612294761577025, -0.09812791245167919], [-0.1942660354700112, -0.22445498735735353, 0.30955205827961896, -0.4337832653159449, 0.5087411760195377, 0.26190922467590105, 0.34496074912840313, -0.14639432768867253, -0.04741541862934502, -0.45320239667012735, -0.16591282089975196, 0.1561073696535761, 0.4098511266440739, -0.3501137268077528, -0.11558312591874176, -0.0478450144142201, -0.4413873012397541, 0.18700104965700995, -0.22894584522475467, -0.061787854253955735, -0.14291894023240612, -0.24961075229480167, -0.002227820020136872, -0.06818173536239762, -0.11759178738873473, -0.23035979125297776, 0.1010425728289596, 0.522919694662181, 0.044236227134994505, 0.3150002377900268, -0.4396267736589072, 0.04988854751146972, -0.34701833200587323, -0.46704467040799347, -0.23380976843749626, 0.3769116638385602, 0.3004213831808371, 0.07684484038680545, -0.4846824740267495, -0.062069391900737014, 0.09540591982225595, 0.055509429734658805, -0.5830587259002964, -0.2815432241242427, -0.020263168208102488, 0.16959007625175915, -0.694476594753862, -0.05126810258376424, 0.04523599293027784, 0.26867090110960545, 0.21910080603122772, 0.18422522669239155, -0.25296339938073004, -0.603363253377856, -0.12429419529228575, 0.31674379445707085, 0.4406490122850994, 0.2246953552648983, 0.13576948925442353, 0.12005259790051172, -0.17586018892824526, -0.04112867607795541, 0.5278061274788437, -0.29806301251285083, 0.5106378895975474, -0.10183424388954879, 0.4191384348661225, -0.44487396765236314, 0.185279176634177, -0.23298717415863848, -0.4475467824191092, 0.06910653203024227, 0.3192230085647249, -0.26719394354147463, -0.47403046839934493, -0.029043864645985813, -0.027649478690155715, 0.17339389088474375, 0.3002881699243089, -0.018788730041286273, 0.5867616680742274, 0.07090925232775168, -0.10954968008358056, -0.5096223457547425, -0.08306023333263599, -0.10637489226459163, 0.30367504042334403, 0.14625016325803236, -0.37294926264312295, 0.05447161980136355, 0.21235680224654813, 0.4832059431828864, 0.28065339694642855, 0.240600837774304, 0.01900085984605294, 0.12279503799257574, 0.3951281433773995, -0.4214612190027249, -0.1105024178042448, -0.24430768951360973, 0.11989874371307915, 0.38903041031042257, -0.18877984505930048, -0.7558806102251513, -0.13035564530488475, 0.28886575759092814, 0.17001350315368985, 0.13540438058427065, -0.08854165635144486, -0.40446503238165454, 0.1629503721684673, -0.2638230730157334, 0.690672030761575, 0.18041021999445128, -0.18361711555810495, -0.1933369909573577, -0.029391538821622435, -0.07573715775767685, 0.35317384984798805, 0.05894996890757542, -0.23136227034205828, 0.5978098346541536, 0.015592663522657637, 0.2431284531567538, -0.19233810968147988, 0.11482724376745236, 0.09838161748473086, -0.5975595741948657], [0.6372859460903045, 0.4081376145995432, -0.12560418749719734, -0.34856829757231494, 0.10990863268630423, 0.027416219804613947, 0.11247239704570768, 0.06058209201777963, 0.16008745711436695, 0.45767824806210816, 0.1796500074248372, -0.3319302135075802, 0.4308802069707885, 0.5188078783065908, 0.9967678595130859, -0.35528000826460515, 0.07680603642418371, -0.6584174215360088, 0.17492112199589585, -0.17335615561904297, 0.6082469667519762, -0.24495476149217607, -0.5341665784899227, -0.14902667992709617, -0.6247040846855776, 0.23751850255531226, -0.6530365983568827, 0.008999077323793136, -0.6570617899965057, -0.1012870591887201, 0.5196818029309388, 0.11404687702742454, -0.27306065366788707, -0.009867409599137638, 0.005697435197226563, 0.14945883841782567, -0.4322385666817273, 0.1873862252234292, -0.855203724096377, -0.19918698484252373, -0.15440574640290947, 0.2002755273670422, 0.007156503985062505, -0.444478064516778, -0.3114821757190569, 0.06282813557138052, -0.02500328888271824, -0.18313512343660243, -0.15205299508278372, 0.22014765051409835, -0.16370876580194085, -0.02785689730495796, 0.6861941996469095, -0.4502079797787641, -0.5856040900203732, 0.24779280917314628, -0.2146057791958623, -0.10063554246077029, -0.24702333636620655, -0.0821560181257705, 0.5055021360809997, 0.2536552905273375, 0.27265901497121126, -0.447850318025912, -0.36402677445204945, -0.8977955020351555, -0.2559486889078733, 0.3025361113719273, 0.16347284182529548, -0.07004864428645054, -0.007051968901701581, -0.2178447361699178, 0.06475044395402065, 0.24219197736097428, -0.5109882689189389, 0.09475691891691541, 0.29486179619819297, -0.13126623705183024, 0.22158098921752306, 0.8900718870849195, -0.03299608832620222, 0.12437460978185626, -0.2333941427591443, 0.05731665023760104, 0.14555066772909375, 0.061614557989118336, -0.32245597296935713, 0.06525732193752484, 0.46238695517957157, 0.14187108556768516, 0.3042070597370058, -0.07494976579634305, 0.2371392774484519, 0.08831224459956372, -0.3007043757304346, 0.1007251857769866, -0.3136020204460814, -0.20013431548294006, 0.05987086765881688, 0.09399689253229487, -0.37606832570603776, 0.33329956583469506, 0.18088426753456424, -0.2228546988417708, -0.4862270052425772, -0.04582285132853125, -0.1410197844035667, 0.0357781539800014, -0.1148275705607179, -0.634813598448569, -0.12280608473845413, -0.09664524874518447, 0.20038121027624078, -0.22079012333593542, 0.5308435418296517, -0.6045138207598031, 0.4146275687040112, -0.07093588703597921, 0.2718246038830716, 0.025235445028721472, 0.36035910140945443, -0.12249460869042907, -0.34741428275444824, 0.4492028973810689, -0.03588573113345739, 0.07006294115628463, 0.39046283936340026, -0.3263329008368883], [0.18542218798735005, -0.18658833013934084, -0.04713827795209638, 0.01945068507182401, -0.47440338606208854, -0.24626596286204355, 0.42726482783883213, 0.2851730194939643, -0.01978575667169172, 0.06945281825698615, -0.09299302036863115, 0.4281350073647976, -0.05790204712125384, 0.07336311935861688, 0.3665923103917237, -0.24580502555270037, 0.4930720654797493, -0.4839466614423813, 0.5136508385583733, -0.11475986215523382, -0.0767358526780644, -0.597586673798167, -0.1436643029395301, -0.32914594224862725, -0.19211621387058211, -0.043449806265917, 0.30126042366605066, 0.06509358555319739, 0.10271338018704601, -0.3464395093601548, -0.2785612033940931, 0.5697296782219333, -0.2324790307505343, 0.5162636235260811, -0.07679902235384797, 0.0007020029311101899, 0.33789781176970934, 0.40686276777618613, -0.04123257853461328, -0.12277590798802357, -0.017661520101586798, 0.10249320863129963, 0.28641124417110336, 0.0013597198612948832, 0.19573476004323087, 0.5260969846174353, 0.11963299578185227, 0.09854975802457024, -0.4803400235009453, -0.8319007671841313, 0.1227145207757036, -0.029919683438553887, -0.16279056035354078, 0.07703519641267494, -0.019070438290336833, 0.35689129929718905, 0.023943207344326763, -0.23630428954190746, 0.3139444722058764, -0.07211098668813454, 0.16648889245327245, -0.15087633713327953, -0.20547837702658872, 0.026722473718582586, 0.003938458443779319, 0.15121773654190376, -0.08954363795667179, -0.5807718732005381, -0.13684324862925074, 0.24795068937561174, -0.10068536071469104, -0.07788233608695065, 0.3177091285213561, -0.2251620756783965, -0.4878864785589045, -0.050881789006270134, -0.15302199869283561, -0.3055004116120974, -0.05542224838911642, 0.14650764486979287, -0.0028752448596683967, 0.09707227192088336, 0.5721586946096884, -0.1090677938450403, 0.08126204025961942, -0.16106762883834708, -0.2675893486325311, -0.1849450224740432, -0.1514357577724594, 0.11463154058072006, 0.7422860125774476, -0.23259042301899033, -0.13166236469516282, -0.01986727605547197, 0.12655141374542805, 0.08331032248996201, 0.4084705536200303, -0.767256389330268, -0.7548140455644557, -0.15686406953204848, 0.3404169143366853, -0.4950894327103689, -0.9510824948485609, 0.18182675609474108, 0.08235443034693272, -0.3447328440583385, -0.3116638675312529, -0.3066525007874727, 0.036196914053154984, -0.19804538269943198, 0.15038946489705896, -0.9026274333044858, -0.27097855562579787, -0.356115675351313, -0.08105016133592302, -0.17008308289723828, 0.2557244360652778, -0.5879154186472193, 0.008201713817864007, 0.1744541549391739, 0.5857772320717124, -0.15223332272243428, 0.1025581880119983, -0.5704067796348364, -0.7563361077772117, 0.2662100032566796, -0.0017014509398254661, 0.3682992360843596], [-0.4364790703585534, 0.1643354474949845, 0.5873812450912486, 0.13000039461478075, 0.08845011876266766, 0.0027421818799483206, -0.49672877647461716, 0.43108262036050543, -0.19236545933114102, 0.15384854773934015, -0.4941915130436641, -0.37289326398633776, 0.45759543957253124, -0.11093461509529721, 0.46222542538615713, -0.024930992791404778, -0.5823060776032046, 0.28333366546346495, -0.18779484260764392, 0.22337983225885463, 0.007991032557086261, -0.4877575200560836, 0.05219011492771081, 0.694433170517549, 0.15595463240923021, -0.018903226281193578, 0.33969401118738457, 0.06624047880125022, 0.07019655164301486, -0.34521112913593915, 0.0738847051875093, 0.3282609880157121, -0.26436783767100436, 0.44333361189018755, -0.028655494346589053, -0.28077017524039544, 0.3152687598361025, -0.08670282676668473, 0.23541739701836648, -0.09278217401246863, -0.018885008686481346, 0.15360555645884916, 0.0974867699678626, -0.631008812945798, -0.3546598907813688, 0.3009767871499845, -0.04250034910205277, -0.16566566279834236, -0.42964665954775944, -0.3414286517039944, -0.6395024297645421, -0.03234828439057928, -0.18843275510139854, -0.3057593540757774, -0.021783373908833087, 0.11527529818157943, 0.6602966217900448, -0.47826183359632846, 0.3672670085358853, 0.30487625098498705, -0.24639611940935138, 0.06441252277353078, -0.1458630969890123, 0.058025659178106065, 0.47664719640803593, 0.19105708017998296, 0.15720492167435224, -0.13617326211896175, -0.4702380451333239, -0.06831250118862409, 0.3771441359441759, -0.4807250273325343, -0.328808856227249, 0.039904388984402434, -0.30978543942251996, -0.25074875354833465, -0.13382054219705591, -0.4318930101653911, -0.30798749367051903, 0.21548363519374145, -0.4133319632840669, -0.505297129071385, -0.2001969524800227, 0.2331004172685666, -0.06754581106341806, -0.1469747964519395, 0.014108475806483299, -0.5520121508748886, 0.15638016555765125, 0.12465767789283305, -0.12989586972232492, 0.3130075010681869, -0.3564141951003546, 0.3567481922382567, 0.04992662109015185, -0.10647572430938744, -0.004959156947833443, -0.03604596515471289, 0.38689512508396773, -0.34038761477657337, -0.2460170806745829, 0.32683106035843645, -0.18889674693629294, 0.28514336631191567, 0.5415808456001205, -0.12702621413406615, 0.21545213863358206, -0.36532823491538635, 0.24003677704304666, 0.06221187587508963, 0.1450493948084119, -0.20398475043491235, -0.5248925106385943, 0.15910239099014872, -0.6524872491567351, -0.1020544798218829, 0.299910317932763, 0.060887013669713066, 0.610702691153474, 0.322482071709654, -0.20869910722504856, 0.009305685241866646, -0.013946073884076914, -0.5006021039580295, -0.2972782597231468, -0.17960540003168227, -0.6438227122204867, 0.011460048125739572], [-0.07861279826739716, -0.5286770187807944, 0.1289653743436851, 0.22903784501451735, 0.07786478737248617, -0.10243068885174011, 0.19156391134155673, 0.21244639938194806, 0.0946677152080754, -0.2606453603188386, 0.0875799179073653, 0.3845891029798986, -0.18915078350232958, 0.6592750985736942, -0.1657036716824795, 0.011001024864104491, -0.21253604133781648, 0.07648301939901925, -0.5508143326986686, -0.17253207136887988, -0.3453341805196822, 0.043294238481089986, 0.3147858341874669, 0.20549832516018862, -0.7499063989316971, 0.6450817421269304, 0.094446998449027, -0.24541540243111276, 0.056786814688765924, 0.055704198355212176, -0.2109620968268659, 0.0666590775889445, -0.19200163106602147, -0.12977036380120252, -0.21408609803680803, -0.45309416831532495, 0.046338827209663654, 0.18290424458559737, 0.16113684146610038, 0.2586749940755308, 0.10261027080498952, -0.16806581985802282, 0.2725115805912705, -0.43040211581622667, -0.2870782666928648, -0.29847760260722245, 0.3415854806796297, 0.29527856724533186, 0.1540623469097009, 0.3389925846291311, -0.2787345619821847, 0.10811349005563374, -0.0388098564629668, 0.26466218341950126, -0.03821964421331827, -0.12178238120134793, 0.17366362975071362, 0.2747746760416148, -0.21134543926594074, -0.021008447270952343, -0.3347421232552692, -0.7923625891974596, 0.06159326147677183, 0.19255735545693625, 0.08536766984565966, -0.6166509125557318, -0.11136085648125477, -0.7016331236677494, 0.426965187767042, -0.3475825207380429, 0.3929158194066746, 0.3011406388184958, -0.28342003139728883, -0.3582513439005629, 0.11058016119452799, -0.2671730931079528, 0.03258588634967793, -0.15392920035794244, -0.5631759288927067, -0.7073222155484825, 0.07181002883233922, -0.17948627916089666, -0.17482199156522274, 0.23056201191223732, 0.3726871147389334, -0.08626799506744706, -0.10586028299144624, 0.15819778244642357, -0.43106790603123013, 0.07696040255781651, 0.17051543556981566, 0.21383969507950534, -0.6122798674889827, -0.24076273915995153, -0.277729163729771, 0.031522448582064405, 0.15094821109099799, 0.46577071029139283, -0.158014406443832, -0.15470331913134627, 0.36138892393085426, 0.08961401388457158, 0.4019625341157631, 0.08870765621833979, -0.36705631546035666, -0.4207136206401746, -0.49064931025273223, 0.20914565573562274, 0.3807712715735864, 0.5875307559205901, 0.2671841558438026, 0.3624186733819827, -0.17878578216471153, -0.365743953262038, 0.2691173069491496, 0.12479960798258521, 0.03360747994504746, 0.12400373841915936, 0.09561323455297314, 0.39520510264231556, 0.4114500492348683, 0.179018499366249, 0.2629453938910877, 0.16042937884807199, -0.14569873329820923, 0.2384473779643525, -0.44086243329811053, 0.3327687501875461], [-0.3775499296125087, 0.09135243295800538, -0.2670959668916691, 0.1777722722110573, -0.0011974304566348055, -0.5036419265546757, 0.14074536537496107, -0.18542867431014795, 0.2699089428388007, 0.0005715976504972263, 0.12518422369732468, -0.29688133730580074, -0.1865541574597942, -0.14730358051163844, 0.27685429326209793, 0.5322011436398765, -0.25479863632362104, 0.3498730131999735, -0.6859000595084894, -0.3774560530322385, -0.30259199992831265, -0.42648110149421553, -0.5003757097094752, 0.1320850021561075, -0.06719696434113005, 0.11889698972819776, 0.21798497165607722, 0.0841672309362217, 0.21934359978108575, -0.022125336902919537, -0.3754695573035005, 0.3416773715047756, -0.1870814790711868, -0.2982886849965565, -0.052611454717264486, -0.2888551723972084, -0.13438397958011952, 0.10572284209806844, 0.107578106440365, -0.2841940554786673, -0.15416894397470154, 0.3384110216572515, 0.16609077315681106, 0.653339234014232, 0.3700479508636662, 0.37246528110922067, -0.438916977383159, 0.23509912540018624, -0.016395561999744845, -0.17421211486573687, 0.0510931136769697, 0.2953548051705671, 0.15841135356613179, -0.2807154065944067, 0.23371917187732374, -0.20176378447351476, 0.06671098976701906, -0.09817858331013467, -0.06920667050262898, 0.2387233655555802, -0.32898108920517544, 0.6092172279427018, -0.5770665197906445, -0.18756716744889118, 0.12297758350248537, 0.1845916669013632, -0.03301173822908023, -0.018313665521240644, 0.12323704959122982, -0.08360896931632594, 0.42991763348822115, 0.264196597782162, 0.27838777102734213, -0.3055765541984943, -0.030722045871016256, -0.09523724815999951, -0.3177736824097226, 0.11044218658123747, -0.1699221859858044, 0.2025292565362974, -0.33826397329857383, 0.5428736517390265, -0.28334316453934044, 0.08165927115527205, 0.2545825559256334, -0.17919724179062227, 0.2717539673361246, -0.3887143360231897, 0.45376557467244877, 0.010819009714522536, -0.19756065333825867, -0.09573140771860505, 0.256025225660561, -0.18483282897362988, -0.23643520048993585, -0.07040006946800134, -0.3719516125158029, 0.566966455661854, -0.18514264369011746, 0.2689167151556981, 0.06100728905646437, -0.3140138800306653, 0.0022259961730079934, 0.24757148436456067, -0.06336185502385679, 0.37902476546606084, 0.32221781945481726, 0.2910492094139091, -0.1397913816437393, -0.3321592838707313, -0.19349917539318137, 0.054026153221620986, 0.17978399619707186, -0.6867244508724947, -0.0022739399601752067, 0.041795417747907015, -0.08786194069986666, 0.41037339809958984, 0.12241152182766758, 0.39653772719540614, -0.06513695543696263, 0.3077608381761083, 0.5082482932922201, 0.4162212685361929, -0.345192774753592, -0.07812752596327127, -0.10900375214551486, 0.15310283332609909], [0.2172817746846673, -0.2653010326114191, 0.020587278910445844, -0.6401042644909509, 0.46705518562081194, -0.15648195281201852, 0.02313317926951308, -0.09683528245396238, 0.35169701187929353, -0.8971090570810938, -0.0050773579413784875, -0.03307128746689623, -0.1436706354535604, 0.5513420548787429, -0.2715975459163732, 0.245393732387837, 0.11199828730167369, 0.4089818202732748, -0.2102891845735103, -0.22930423509739228, 0.3497016449371849, 0.13813553080014102, -0.4881145273489197, -0.16994198199125424, 0.12444520996884148, 0.2622034414253213, -0.21609621381390043, -0.9213149750157466, 0.16846878541990248, -0.3870131330864433, -0.6380742882972934, -0.8926257686210808, 0.250673331857007, 0.03877055655336333, -0.07170687316508292, 0.4373365802946641, 0.19196815858560418, 0.5111986122817537, -0.4403710330420483, -0.011237819548811196, -0.511184718945241, -0.07503348534004968, -0.06978259296918263, 0.1961782043938054, 0.015205064207235735, 0.20436563404725114, 0.22119273426149041, 0.6743706510059757, -0.09771912376942636, -0.2975481560431961, 0.07374497186054821, -0.25675057698278947, 0.46760926606561726, -0.0895415451935968, -0.17892487171196994, -0.15002503081405286, 0.21744326572222586, -0.05022541178082823, -0.20348683084439514, 0.5209317056146848, -0.27079802711481366, 0.00308815117022381, 0.20468048594662852, -0.5151297478680461, 0.158201491901915, -0.33388375131695947, 0.2568423745683679, -0.3046220859724228, 0.22024363192983767, 0.3421677681443437, 0.26078746024305816, 0.07524908503399089, -0.06841790425578076, -0.182402123527957, 0.45436891026735143, -0.22147502178310943, -0.32810562829014894, 0.20256562553398286, -0.2517973218438037, -0.30113361758883583, -0.45542694521254107, -0.14964712700049415, -0.028180084156901753, 0.08304509852728682, 0.3055319093198035, 0.17073348674895616, -0.05841950011421978, -0.0626958973890269, 0.1528213567993987, 0.403724272657358, 0.02956242073939866, -0.14879419981923087, -0.3133022733389334, -0.4570999783458026, 0.21297201128412838, 0.18126387842048747, 0.18651625811387665, -0.044652448628340766, 0.43626111085329516, -0.146165866365306, 0.29580660869973524, -0.007225914471131818, -0.1877452710011351, 0.19266514013079158, 